Hidden Layer
-1.659559905948519987e-01 4.406489868843161961e-01 -9.997712503653102267e-01 -3.953348547363204624e-01 -7.064882183657739123e-01 -8.153228104624044015e-01 -6.274795772446581932e-01 -3.088785459139045120e-01 -2.064650515386601271e-01 7.763346800671389047e-02 -1.616109711934103910e-01 3.704390007935189910e-01 -5.910955005369651349e-01 7.562348727818908323e-01 -9.452248136041476734e-01 3.409350203568044524e-01 -1.653903952657460596e-01 1.173796568915033145e-01 -7.192261228095324643e-01 -6.037970218302424197e-01 6.014891373510733441e-01 9.365231514387950540e-01 -3.731516436815143223e-01 3.846452313386281574e-01 7.527783045920766192e-01 7.892133270076946427e-01 -8.299115772604441776e-01 -9.218904335342352763e-01 -6.603391608708621963e-01 7.562850068588262697e-01
-8.033063323338998085e-01 -1.577847499898956674e-01 9.157790603010038666e-01 6.633056994603414580e-02 3.837542279009467094e-01 -3.689687379878741069e-01 3.730018553631673228e-01 6.692513437947458232e-01 -9.634234453116163888e-01 5.002886298899349438e-01 9.777221778129894236e-01 4.963313087596787909e-01 -4.391120158711896426e-01 5.785586569029770310e-01 -7.935479868447159468e-01 -1.042129476481896688e-01 8.171910061861911156e-01 -4.127717032526410090e-01 -4.244493228273025220e-01 -7.399428557634446513e-01 -9.612660842594058508e-01 3.576710658797819242e-01 -5.767437679998819178e-01 -4.689066812555475749e-01 -1.685368143932342022e-02 -8.932749097658392312e-01 1.482352109840261445e-01 -7.065428501883797008e-01 1.786110738065684878e-01 3.995167200418623388e-01
-7.953311423443483186e-01 -1.718880243608633673e-01 3.888003154554902085e-01 -1.716414609461947016e-01 -9.000930821078256816e-01 7.179281183102315111e-02 3.275892904395776295e-01 2.977822411661712465e-02 8.891895119816266568e-01 1.731100810039858384e-01 8.068038305757669892e-01 -7.250505917075249496e-01 -7.214473054984829048e-01 6.147825774190476267e-01 -2.046463260289328456e-01 -6.692916057661344453e-01 8.550171607920677985e-01 -3.044682805089868882e-01 5.016242062723110795e-01 4.519959707009029160e-01 7.666121824116196581e-01 2.473444141112177697e-01 5.018848680546743601e-01 -3.022033160443149402e-01 -4.601442164699478532e-01 7.917724363921336828e-01 -1.438176202574101836e-01 9.296800942967711201e-01 3.268829956368961565e-01 2.433914404182435653e-01
-7.705080540932496280e-01 8.989785174141424751e-01 -1.001757330401189527e-01 1.567792287742635349e-01 -1.837263944774376601e-01 -5.259460395139445854e-01 8.067590411245075810e-01 1.473589733445717087e-01 -9.942593459376820597e-01 2.342898272414477567e-01 -3.467101964558076954e-01 5.411620451521859110e-02 7.718841986215490003e-01 -2.854604799950004601e-01 8.170703018395983896e-01 2.467202315836054538e-01 -9.683575143068874347e-01 8.588744674875226082e-01 3.817938350338478948e-01 9.946457009029610052e-01 -6.553189833093429062e-01 -7.257285007422444867e-01 8.651909260743271268e-01 3.936363229798003349e-01 -8.679996545558750221e-01 5.109261052049327567e-01 5.077523769224927541e-01 8.460490710929666758e-01 4.230495172569435081e-01 -7.514580760556706096e-01
-9.602397323204088231e-01 -9.475780262445614444e-01 -9.433870239584107864e-01 -5.075778647939082067e-01 7.200558973657760209e-01 7.766212868330568675e-02 1.056439573715317604e-01 6.840617847192114187e-01 -7.516533697601777142e-01 -4.416326419777210077e-01 1.715185429165757558e-01 9.391914966393490882e-01 1.220604385114198998e-01 -9.627054212541139577e-01 6.012653453612326615e-01 -5.340514523179591411e-01 6.142103912375582730e-01 -2.242787118716564887e-01 7.270837091188573353e-01 4.942432854743692427e-01 1.124804679808377728e-01 -7.270895486786299600e-01 -8.801646209755766836e-01 -7.573130885185253014e-01 -9.108962429104765501e-01 -7.850117417878141879e-01 -5.485813227842906148e-01 4.259779607653533251e-01 1.194339641082848846e-01 -9.748880396817682925e-01
-8.560514406210264493e-01 9.345526600005440443e-01 1.362009238398842470e-01 -5.934135306780190522e-01 -4.953485108593531638e-01 4.876517081501858808e-01 -6.091410377813624155e-01 1.627178545465155501e-01 9.400399781766246576e-01 6.936576029800705090e-01 -5.203044817048276816e-01 -1.246057146254009318e-02 2.399114367627595001e-01 6.579617991003574584e-01 -6.864172107078314600e-01 -9.628475956451809648e-01 -8.599557125615553410e-01 -2.730977812593637921e-02 2.126589233066606965e-01 1.377028741729626748e-01 -3.652751813556784910e-01 9.772323088248977552e-01 1.594904384915938333e-01 -2.397176547528991897e-01 1.018964382357936405e-01 4.906688618130041757e-01 3.384657869063691926e-01 -4.701608846743812187e-01 -8.673303311431168616e-01 -2.598316041717874114e-01
2.594350140431289642e-01 -5.796519801703208241e-01 5.055111074776277302e-01 -8.669270372917701195e-01 -4.793698028429180802e-01 6.095091274866908382e-01 -6.131314347533445286e-01 2.789217617598802601e-01 4.934061824746738267e-02 8.496159407987013967e-01 -4.734064590257780480e-01 -8.680778186319524359e-01 4.701319265773389322e-01 5.443560590864935378e-01 8.156317050070480690e-01 8.639441383936745655e-01 -9.720968540488059695e-01 -5.312758277571589804e-01 2.335567140033152356e-01 8.980326413752328651e-01 9.003522384941593515e-01 1.133063763903128240e-01 8.312126995325490597e-01 2.831324178926750701e-01 -2.199845717175075155e-01 -2.801866580618050939e-02 2.086209658399464928e-01 9.909584301712515142e-02 8.523628534129072953e-01 8.374668712672121984e-01
-2.102487741528902276e-01 9.265250568814236143e-01 -6.520886666390712794e-01 -7.473409611207253445e-01 -7.298416839065373640e-01 1.132433135379340428e-02 -9.569503894516040443e-01 8.959404224353619828e-01 6.542309423414649494e-01 -9.699620385157552427e-01 -6.476074888498895010e-01 -3.358728512663260446e-01 -7.380063103781662193e-01 6.189813842531641797e-01 -3.105266946334130918e-01 8.802149646667343230e-01 1.640283598941600918e-01 7.576639688236881387e-01 6.894688907844437331e-01 8.107846374172984483e-01 -8.023946836638606861e-02 9.269363204074654305e-02 5.972071823040787653e-01 -4.285622965317048561e-01 -1.949295476014456518e-02 1.982206152917567188e-01 -9.689334488983285532e-01 1.869628163932743892e-01 -1.326473020210834353e-01 6.147210577696828881e-01
-3.695103938092541007e-01 7.857774170503026845e-01 1.557144305690709718e-01 -6.319795967450698715e-01 5.758584676510085654e-01 2.240623540898678545e-01 -8.921814558524940875e-01 -1.596126399977355614e-01 3.581376731308592021e-01 8.372035559550516925e-01 -9.991959502172851337e-01 9.535182980621192961e-01 -2.468393705084510614e-01 9.475670767166450847e-01 2.094322019481060781e-01 6.576916159613859225e-01 1.494230094162045663e-01 2.561523966147007947e-01 -4.288474366086121314e-01 1.736666813121658937e-01 5.000435274053198764e-01 7.166276728580847077e-01 5.101643769353603197e-01 3.961144968946059830e-01 7.289588601091996356e-01 -3.546380063265071048e-01 3.415775815751744826e-01 -9.825212717330167322e-02 -2.357944959369655535e-01 -1.783773001556288040e-01
-1.970408330609187963e-01 -3.652321080834461942e-01 2.438387358406028937e-01 -1.395054583574713014e-01 9.476041558545045262e-01 3.556017828686222071e-01 -6.028602231457782512e-01 -1.465979813039344215e-01 -3.133075204511539535e-01 5.952776079171331336e-01 7.599965771268635262e-01 8.076839116527438911e-01 3.254396247505244588e-01 -4.595834759404844316e-01 -4.952665969908205401e-01 7.097958853948047597e-01 5.542929261749329761e-02 6.043221680091961368e-01 1.449770343832126329e-01 4.662850505750222307e-01 3.802325492811164942e-02 5.417678210037759623e-01 1.377159814094310875e-01 -6.858024281603825045e-02 -3.146221840934364522e-01 -8.635813031665917627e-01 -2.441516413438002964e-01 -8.407478446034952757e-01 9.656342274608900045e-01 -6.367742973384724614e-01
6.237173954410795140e-01 7.499232899117962425e-01 3.768265047718866168e-01 1.389888254907514220e-01 -6.780571263687824590e-01 -6.623995447338737463e-02 -3.096558976895700255e-01 -5.499200843718308196e-01 1.850237375315935129e-01 -3.754603245961660729e-01 8.326111069367014839e-01 8.192710499031141680e-01 -4.857634124356076111e-01 -7.782173985119416049e-01 -6.140745359617743038e-01 -8.316586422278948731e-04 4.571713359491924589e-01 -5.836111231824170353e-01 -5.039328832455385321e-01 7.033437498727339587e-01 -1.683025634649453206e-01 2.333701343104723769e-01 -5.326677215214998817e-01 -7.960654811484051407e-01 3.171403393705962692e-02 -4.571802590043527736e-02 -6.946567118136734997e-01 2.436124634808309875e-01 8.802023762787625216e-02 3.082746939414886533e-01
-7.109089197506803792e-01 5.030556342704877171e-01 -5.559017204001546197e-01 3.870364873206599832e-02 5.705920564432378495e-01 -9.553391440163876425e-01 -3.512750805476270166e-01 7.458447528002221105e-01 6.894192152041391797e-01 7.688118518908737542e-02 7.332165483330259637e-01 8.996119827072530661e-01 6.528139952586826666e-01 7.082308876730774028e-01 -8.025131963593032935e-01 3.026086646819821091e-01 4.070339763053059112e-01 2.204816252932593201e-01 5.992305234720560758e-01 -9.308575602567314977e-01 5.404774691099598627e-01 4.634572014790538930e-01 -4.806032134032938163e-01 -4.858614023557066286e-01 2.646066348602555962e-01 -3.094050768178369104e-01 5.931773560145749968e-01 -1.077075359930854681e-01 5.654988295683438526e-01 9.809435672476813917e-01
-3.988029877536281576e-01 -7.138630951594731044e-01 7.987733664529902411e-01 8.288592896899375784e-02 9.499420691148724449e-01 2.736558191102078097e-01 9.878272961750493852e-01 9.201329080576992059e-02 5.044923765807424187e-02 -7.291500545609554962e-01 -2.915364466581304437e-01 -9.472676813710928512e-01 -6.792130586637296075e-01 4.907347484939497684e-01 -9.391368061479440366e-01 -2.669100185494955313e-01 7.209595330758634679e-01 3.857186947076233219e-01 3.825623958243621336e-01 -6.243421994391368246e-01 -1.161578878989496522e-01 1.634526068865426174e-01 9.795757709539703040e-01 -5.922258184400318592e-01 -5.045342108267945047e-01 -4.757000238148126336e-01 5.038002554887891504e-01 -8.612124831916677381e-02 -8.858304660570124334e-01 1.725094487736410220e-02
-5.744541822552819976e-01 5.998465395002732237e-01 -4.145538264054895450e-01 -9.452969224645854096e-01 1.878750972796591756e-01 6.871909638633658668e-01 -2.379623543249901607e-01 4.945721214426014312e-01 1.749050335819949190e-02 8.189191042017054945e-02 9.111382697749452753e-01 6.085766805235162114e-01 -9.353613526736707096e-01 4.071189492595065351e-01 -6.985677558837141699e-02 8.951805269552365329e-01 -5.653237013756685636e-01 -4.651804549121620891e-01 -8.343545614143105249e-01 -1.462672428209011444e-01 -7.812391194599225264e-01 2.693326065995734209e-01 6.062442447090895525e-01 3.935172627987332250e-01 5.324225032230662791e-01 -3.151958337474293770e-01 6.992668824878288669e-01 -1.426384655372761601e-01 6.547502397416803399e-01 2.535293679858786620e-01
-7.130515239386624460e-01 -8.405957438933528980e-01 -9.642256689551234050e-01 -8.665490383301837074e-01 -8.283231648364450250e-02 -7.749505495746742412e-01 -9.444303342737878637e-01 5.043107855730539768e-01 -2.097777123586193615e-01 4.938782524940482643e-01 -9.661242851076250193e-02 -9.981699562997889408e-02 -4.385498915685513699e-02 -6.364763190938338422e-02 6.063272747308395827e-01 -1.951322207099916439e-01 8.093553534040403008e-01 -9.260113384716647245e-01 5.490981640961235533e-01 -7.486803507493500209e-01 2.377503351005789689e-01 -9.780395723719239598e-01 7.743187573461836337e-02 -9.939640130183762246e-01 9.023873178123980043e-01 8.108008065615298632e-01 5.919313452168041279e-01 8.305279723652121415e-01 -7.021507481739682754e-01 -6.844745487825507624e-01
-6.247323884150967066e-01 2.451014069497068903e-01 8.115818689007230358e-01 9.799103969844432660e-01 4.222449198691106687e-01 4.635327184883465401e-01 8.185865327563784932e-01 -1.984780426414199106e-01 -5.002769176032555443e-01 -6.531396058724626696e-01 -7.611451527493613423e-01 6.252215723310114992e-01 -7.064152532735352708e-01 -4.718906797559391242e-01 6.381783818713324674e-01 -3.788220489293076532e-01 9.648341916157521236e-01 -4.667281554625519191e-01 6.736291821972643923e-02 -3.710644406710019161e-01 8.215757957341919271e-01 -2.668353829242973152e-01 -1.328079575127573964e-01 2.458538762932406183e-02 8.777729441907594632e-01 -9.381021233261996883e-01 4.337572214855560659e-01 7.820370474403293137e-01 -9.451450200688441550e-01 4.410521581653741030e-02
-3.480203764599494320e-01 7.189786417311716527e-01 1.170331018450356808e-01 3.804557363254956748e-01 -9.429300009692509477e-02 2.566180750427142776e-01 -4.198062966251483452e-01 -9.813028440669684382e-01 1.535118699741815362e-01 -3.771115717350743690e-01 3.453519700225959888e-02 8.328117061077955352e-01 -1.470504229972080523e-01 -5.052079267952291897e-01 -2.574124774418911077e-01 8.637222332730811747e-01 8.737367626181873348e-01 6.886598971314263906e-01 8.404130286113209447e-01 -5.441994200973661044e-01 -8.250355808928182544e-01 -5.453805274306224860e-01 -3.712467677718991332e-01 -6.504682472873768440e-01 2.141883239449209331e-01 -1.728271699976773323e-01 6.327030236544282094e-01 -6.297392034619386791e-01 4.037530595126208599e-01 -5.192887503017222794e-01
1.484381776817194076e-01 -3.020248055584222602e-01 -8.860712010343345657e-01 -5.423726580792482821e-01 3.282051107095869114e-01 -5.499813278937448757e-03 3.803196814735754216e-02 -6.505596997821549987e-01 1.414317030925127394e-01 9.935068504164199510e-01 6.336702175832438222e-01 1.887452476619555508e-01 9.519781366618098595e-01 8.031251693386425305e-01 1.912158672052910457e-01 -9.351473493710857898e-01 -8.128458083650385024e-01 -8.692565699155472281e-01 -9.653370261704941058e-02 -2.491303336642844979e-01 9.507000685405730955e-01 -6.640334136007701726e-01 9.455751838653103647e-01 5.349497377260261644e-01 6.484756792489956290e-01 2.652316335559945504e-01 3.374655404134641046e-01 -4.623533295761328432e-02 -9.737272861538555091e-01 -2.939878289163504466e-01
-1.585639701288310555e-02 4.601824221802086612e-01 -6.274331450778158903e-02 -8.519016782113664199e-02 -7.246745181087936860e-01 -9.782225323930420213e-01 5.165565209539924041e-01 -3.600943238446432382e-01 9.687669003870214013e-01 -5.595315476816880018e-01 -3.225839490366406714e-01 4.779227133226338076e-02 5.097829141210654669e-01 -7.228443219940872133e-02 -7.503549137766474253e-01 -3.749972430159009829e-01 9.038339401989281541e-03 3.476980160337352910e-01 5.402999126241843086e-01 -7.393284380912914511e-01 -9.541697373552364692e-01 3.816464442397893286e-02 6.199774213248325783e-01 -9.747924659402473768e-01 3.449396893074678783e-01 3.736164533139836319e-01 -1.015064928267248590e-01 8.295773734838685076e-01 2.887221695139858824e-01 -9.895203246970682986e-01
-3.114310897124883404e-02 7.186356121952000020e-01 6.607991400746788813e-01 2.983083942249558085e-01 3.473968477972633195e-01 1.569991595784010485e-01 -4.517604496662956937e-01 1.210599810721175729e-01 3.434595696348405891e-01 -2.951407395671823419e-01 7.116567345078554929e-01 -6.099250279825854104e-01 4.946416206638464264e-01 -4.207945076262451511e-01 5.475985744883640205e-01 -1.445253413278475563e-01 6.153968182244189400e-01 -2.929302746640192190e-01 -5.726135247408377094e-01 5.345690168435330847e-01 -3.827161047386977710e-01 4.664901354528550037e-01 4.889463061554641943e-01 -5.572065981835978565e-01 -5.717757263587031069e-01 -6.021041531458666274e-01 -7.149633244683106792e-01 -2.458348015853317747e-01 -9.467442306167570543e-01 -7.781592619315187420e-01
3.491280475268210282e-01 5.995530737947725175e-01 -8.389409457432281947e-01 -5.365953790284159197e-01 -5.847486763923712694e-01 8.346671261632612193e-01 4.226290362729734351e-01 1.077692221028285768e-01 -3.909640241587595266e-01 6.697080952635969808e-01 -1.293880847409600854e-01 8.469124302375503621e-01 4.121036086718663505e-01 -4.393738406943326069e-02 -7.475797925012825917e-01 9.520871009354952008e-01 -6.803326993118132826e-01 -5.947957495606748246e-01 -1.376364896792581227e-01 -1.915961884497054957e-01 -7.064970384714117646e-01 4.586378387222467268e-01 -6.225098662456280962e-01 2.877912886233255918e-01 5.086119011525973566e-01 -5.785352158333585404e-01 2.019084962152799534e-01 4.978567504916728836e-01 2.764374212406668363e-01 1.942546058932981268e-01
-4.090354286890058866e-01 4.632129424830175868e-01 8.906168799998994690e-01 -1.488772194769061308e-01 5.643636336628106154e-01 -8.877179206761693919e-01 6.705432049799318062e-01 -6.154999663557045864e-01 -2.098062622200536076e-01 -3.998379081492871023e-01 -8.397927123879014299e-01 8.092620058724857568e-01 -2.596916448925234988e-01 6.139487695227896502e-02 -1.176746820734986265e-02 -7.356777161141236920e-01 -5.870918822211339538e-01 -8.476223819353576605e-01 1.584339989057492737e-02 -4.769008963340257701e-01 -2.858767822344161491e-01 -7.838693426055263203e-01 5.751036793050143814e-01 -7.868322464223977963e-01 9.714176474263755967e-01 -6.456776711231653199e-01 1.448102248692986205e-01 -9.103093308218237478e-01 5.742325793116682675e-01 -6.207881043634069229e-01
5.580795681625327909e-02 4.801550863181431872e-01 -7.001370301654881168e-01 1.021743483739434577e-01 -5.667655833424412037e-01 5.183920986342893666e-01 4.458303871124273954e-01 -6.469019314458339664e-01 7.239331153341468372e-01 -9.604498009673114733e-01 7.204739948462304255e-01 1.178076223218766927e-01 -1.935590557883015705e-01 5.174938620446731807e-01 4.338580033849397388e-01 9.746523496168530976e-01 -4.438299027740344460e-01 -9.924126551813148289e-01 8.678052166297756109e-01 7.157942090757876130e-01 4.577017550385118483e-01 3.337756584307682850e-02 4.139124904975219899e-01 5.610591137534854944e-01 -2.502481129262812409e-01 5.406450506599151939e-01 5.012486383503507170e-01 2.264224230885194533e-01 -1.962681520643252409e-01 3.946160385286818784e-01
-9.937742843496157885e-01 5.497932934491955859e-01 7.928332049136939119e-01 -5.213685851249907355e-01 -7.584656313815405504e-01 -5.594320244125448038e-01 -3.958065374198034281e-01 7.660570171276683826e-01 8.633286047618904391e-02 -4.265767007871388294e-01 -7.232906204141069662e-01 -4.197110737909166556e-01 2.277421794825051915e-01 -3.517229402051067488e-01 -8.527963661800308515e-02 -1.117657859667711140e-01 6.562707214630241204e-01 -1.473036915275387493e-01 -3.086023576489953513e-01 3.499432096182104601e-01 -5.570358885329425025e-01 -6.550835214689243458e-02 -3.704686253519671180e-01 2.537112043256692928e-01 7.547209493896251953e-01 -1.046219997087429743e-01 5.689148375838462002e-01 -8.606859887689921607e-02 3.124586634342627622e-01 -7.363180499449957228e-01
-1.340369860647037115e-01 8.186239773098733519e-01 2.109580020618693208e-01 5.335491744742042464e-01 9.401216191788686061e-03 -3.888750343985059033e-03 6.857996803856998280e-01 -8.643861313180924988e-01 1.465445430993692622e-01 8.855251508658985582e-01 3.572009634464379246e-02 -6.110683809442309933e-01 6.958787848869523174e-01 -4.967217152882943410e-01 4.014520729650759012e-01 8.052188079379973829e-02 8.976725765604391949e-01 2.486734048053518276e-01 6.759559240954586823e-01 -9.841342476109538051e-01 9.786801123332760088e-01 -8.445708593352270199e-01 -3.557409727704607949e-01 8.923047909135306544e-01 -9.821217952575098664e-01 6.454600108438710571e-01 7.224232767335887484e-01 -1.203383715828549860e-01 -4.885096123881376151e-01 6.053790392665971964e-01
-4.427599113555769073e-02 -7.313227826886077310e-01 8.556979856500215309e-01 7.919399340132968756e-01 -1.690969996612934345e-02 7.134049930355843561e-01 -1.628439484718027241e-01 3.669298003326022517e-01 -2.040187211841550941e-01 1.148403490162075435e-02 -6.208965943321453906e-01 9.299778482218277187e-01 -4.115686235114905944e-01 -7.930808877671973178e-01 -7.113691995419038072e-01 -9.718154116151140887e-01 4.318913989247890051e-01 1.289966404817481926e-01 5.891567023695043481e-01 1.415984656827284915e-02 5.836420790083076682e-01 3.915284285436788636e-01 5.556969537183507057e-01 -1.870342620458274041e-01 2.955412663749623636e-01 -6.404114046140512162e-01 -3.563600732241920532e-01 -6.547907597604150087e-01 -1.827255499734752320e-01 -5.171625040688023756e-01
-1.861560117412841553e-01 9.504446848746241905e-01 -3.593613483559374711e-01 9.649818899497906166e-01 2.726122517119671240e-01 -2.498179632121779736e-01 7.149689981671931704e-01 2.391734787371475601e-01 -4.959338397383212804e-01 5.857113559537752145e-01 -1.341229825316738733e-01 -2.849776653391171699e-01 -3.394461269498381117e-01 3.947377512262788546e-01 -4.626997521875468866e-01 6.165560274107602101e-01 -4.094224112003044258e-01 8.824276717071444232e-02 -2.415701638959522057e-02 7.107128251907395278e-01 7.767728687907717866e-01 -6.312311152644665135e-01 1.706969178765020967e-01 7.964100920342742640e-01 -1.077655619311406188e-01 8.437366109676307513e-01 -4.420182190860582061e-01 2.176623483875914644e-01 3.649074195336308168e-01 -5.435885332990317842e-01
-9.724649748845664021e-01 -1.665520752586078235e-01 8.769637837134680591e-01 -3.139437803391869064e-01 5.594885909651998723e-01 -6.505273743451851498e-01 -3.160943273950951315e-01 -7.108045583238065124e-01 4.335416282927520015e-01 3.986152473936284135e-01 3.769946358978375489e-01 -4.932079310274006811e-01 3.847202432468177502e-01 -5.454049181681008829e-01 -1.507017681373206131e-01 -2.561557566646255335e-01 -2.893841767597555847e-01 -8.846903855174872433e-01 2.632932537318792843e-01 4.146332053633989823e-01 2.271773890056711931e-01 2.966255123262491189e-01 -6.601185715654844799e-01 -7.011064021222750409e-01 2.835008705176567112e-02 7.506654527090781404e-01 -6.320931169055559184e-01 -7.432176258348022202e-02 -1.421353319401941206e-01 -5.421628160967362220e-03
-6.769784590279761538e-01 -3.151187177303789166e-01 -4.762391917929595930e-01 6.890538864589579315e-01 6.006644915528034367e-01 -1.467216834637128375e-01 2.140309215780777929e-01 -7.090687794675600841e-01 1.922658843511726445e-02 -4.061058284261909179e-01 7.193019071384021412e-01 3.431967618127798048e-01 2.669480252448419577e-01 -7.504973998616415454e-01 -5.882424100222860552e-02 9.731455591737629973e-01 8.965983481453301263e-01 2.901712805208871426e-01 -6.965502579360527413e-01 2.782536974398099883e-01 1.313242250878550177e-01 -6.266832467749594571e-02 -1.439250610634597027e-01 1.985395113160601799e-01 6.999397770319308876e-01 5.022420807438747747e-01 1.587210805944661018e-01 8.494083630720561384e-01 -8.705200331169022920e-01 9.826930174636181459e-01
-8.940109146640209392e-01 -6.010089077228772947e-01 -1.544946767108781316e-01 -7.849822476296646201e-01 2.473408219954036369e-01 -9.040148719022653712e-01 -4.307522379861157269e-01 -8.779266377606578242e-01 4.070386622101622720e-01 3.369123351789640175e-01 -2.428388134987955471e-01 -6.236114799403575937e-01 4.940096580598902776e-01 -3.192414184690655077e-01 5.906023348112856564e-01 -2.419812164075940686e-02 5.133888870195879583e-02 -9.430183010168655677e-01 2.884640397580635618e-01 -2.986869951356652120e-01 -5.415899454158685788e-01 -1.322332475765988224e-01 -2.350650854581648463e-01 -6.042191982727951327e-02 9.589667083596127295e-01 -2.712438592635391110e-01 5.488202666720789491e-01 1.055351930997849852e-01 7.782621782149656831e-01 -2.900942977008560408e-01
-5.089626396269850694e-01 8.220384793139365875e-01 -9.129314724844692641e-01 9.015068561220045407e-01 1.128138313418505234e-01 -2.472735666258250031e-01 9.901046446782222343e-01 -8.832747077047367057e-01 3.341271953522428895e-02 -9.378058490889042975e-01 1.423514783724668664e-01 -6.390629820097688540e-01 2.619184006790609143e-01 9.618473515011629615e-01 7.498051024247618379e-01 -9.632750115825872150e-02 4.169217401034344128e-01 5.549375000063785368e-01 -1.031383163487276100e-02 5.706698035513024791e-02 -6.984312032556148075e-01 -2.612001487761874685e-01 -7.155574938544266850e-01 4.537875066891252640e-01 -4.597401119547361859e-02 -1.022423265864689235e-01 7.719959423307025670e-01 5.523754462312280289e-02 -1.818183361662801811e-01 -4.622159555747082926e-01
-8.559759296604600998e-01 -1.637277325493684543e-01 -9.484930351868332554e-01 -4.176921188951439046e-01 7.019019696792971885e-03 9.318661300394446290e-01 -7.812341716128308189e-01 3.460821084332439401e-01 -1.352578016000638428e-04 5.541964585515659625e-01 -7.127860042515814509e-01 -8.335947271282488913e-01 -2.015627892950924149e-01 5.939245039598002318e-01 -6.166485221802198158e-01 5.355543842945480471e-01 -4.194040058762635859e-01 -5.662170247764093389e-01 -9.665688218459871361e-01 -2.026818801552425775e-01 -2.378370174130952641e-01 3.186898723907294340e-01 -8.581631990592255566e-01 -6.947920259154563016e-01 -9.668482341981317063e-01 -7.724072871051863576e-01 3.035785520201808030e-01 -1.946862956501616004e-01 -3.579473716653682747e-01 1.158239884875449377e-01
9.869209947160870744e-01 6.689730893661843814e-01 3.992463277750820105e-01 8.365171335021028831e-01 -9.205425662264645759e-01 -8.593331343920153076e-01 -5.198742003297002201e-02 -3.016648801638751043e-01 8.745041239428492652e-01 -2.087007496988734986e-02 7.929729034211409344e-02 7.905207347090940084e-01 -1.067299068896741532e-01 7.540687767419466114e-01 -4.928348544352312843e-01 -4.523805892403525708e-01 -3.432773630347061289e-01 9.512854121286375142e-02 -5.597415049119410790e-01 3.428583572281233005e-01 -7.144134354472111426e-01 -8.117783471614958835e-01 7.403853321635756046e-01 -5.262625928290849409e-01 -2.279919779549937908e-01 1.430841854291870496e-01 5.160451128916544727e-02 -8.479534391304401897e-01 7.482519525717032938e-01 9.022711306862202241e-01
6.250148111496968140e-01 -4.323830854689884040e-01 5.569346422566761462e-02 -3.211731359283562237e-01 1.093346820232513339e-01 9.488064877405656405e-01 -3.765804822733187507e-01 3.375940751670160611e-01 -3.481189045679149996e-01 5.489545419816886929e-01 -3.484083505736743080e-01 7.796547069450050493e-01 5.034154495479199465e-01 5.252639624272444907e-01 -6.103133212981118327e-02 -5.784709842042328187e-01 -9.170534076922423061e-01 -3.563068542430819496e-01 -9.256250922190059072e-01 3.876711274844764077e-01 3.407016400004830858e-01 -1.389944355350589134e-01 5.356104853221894668e-01 7.201698968800712697e-02 -9.202801467352169640e-01 -7.304150106853508628e-01 -6.131652787365690083e-01 -3.286824059209767501e-01 -8.953737818545287608e-01 2.102359299587849562e-01
2.412322521547267257e-02 2.353989082578377690e-01 -1.353102700701298011e-01 6.949587725900606694e-01 -9.184971025510257903e-02 -9.692433947464592636e-01 7.469567880926125669e-01 3.124731748626126127e-01 6.420867428452948777e-01 9.035362548106404823e-01 -9.001769913212536167e-01 -5.297587649429040813e-01 -8.733104639442230699e-01 -1.567002612702358411e-01 7.288300423182068055e-01 -8.367516277884617937e-01 -5.455972837241663403e-02 -7.463105882515501666e-01 5.554750566884950613e-01 6.798920782443560462e-01 -9.133689852535425979e-01 -2.707837135079453617e-02 -5.176408442199633697e-01 9.049475583292692082e-01 8.877852551767615452e-01 2.266610767465325194e-01 9.484439549822225590e-01 -3.145798382735400245e-01 7.957078759015187019e-01 -1.289350206137359345e-01
-5.290348612387589800e-01 8.824575883374121688e-01 3.683715624830730673e-01 -8.709888642453940122e-01 7.408889997285090789e-01 4.025952255844953975e-01 2.113525467139698855e-01 4.662996444318339706e-01 -5.039001732536410039e-01 2.009512978000342343e-01 6.235727787875454675e-01 -8.913424419735902493e-01 -7.389822992745147534e-01 6.862372478120998265e-01 2.416235676922980635e-01 6.249196534196624353e-02 -5.060051332221565668e-01 -4.030066787606867984e-01 7.672888636208353708e-01 -1.635208876335988715e-01 -8.720719276199931924e-01 7.940815601190133188e-01 -5.848336012210421098e-01 6.525475944690357633e-01 7.635402763527499026e-01 -2.986992043152732201e-02 2.015378252984464102e-01 4.409692558994021683e-02 2.496027632340026836e-01 7.151061640179974255e-01
-4.395550210587397255e-01 7.692862503607583724e-01 1.073910236005256036e-01 -7.707060323469625551e-01 -5.468006905410186524e-01 1.952294138958569347e-01 -5.209281638204283915e-01 -7.235474075859336107e-01 -6.920923729572052707e-01 6.887201579686342834e-01 1.875872634087481228e-01 9.363060700105612089e-01 -3.090120632037668402e-01 1.866458606106506934e-01 2.070788504796650387e-01 2.282816701750549349e-01 -8.908448614406537791e-01 5.217683332137987851e-01 9.232883051608989922e-01 6.246297893192091083e-02 -6.133917058186181270e-01 5.055394135874401451e-01 -9.809876979275012898e-01 -3.422486343948069054e-01 8.352122571765717707e-01 1.677498597847291439e-01 7.307200847925516829e-01 1.972543749892252674e-01 6.455048355873933552e-01 7.623219478199809718e-01
-3.620327027643024387e-01 -7.493886476796999263e-01 4.289199794583771208e-01 -1.244157817481197498e-01 -7.463721440399109230e-01 1.801706216048624132e-01 -9.285888665723198709e-01 -5.879177940344453290e-01 5.596482001639061510e-01 -9.760728260345846730e-01 -4.033125750707291512e-01 -9.495967266569913523e-01 9.946991162257197150e-01 1.633117323793249476e-01 -4.042532720258483203e-01 8.561297049437595064e-01 3.742078987073158697e-03 -8.230652281063519093e-02 1.853060807879228500e-01 -4.750572966251664364e-01 -3.912115250625436413e-01 -2.392645693974392584e-01 -5.082261801785669109e-01 1.709331930723462789e-01 3.916741808149954429e-01 -8.585782697385567763e-01 9.519457387338493559e-01 5.055586252170514161e-01 6.121239039818233696e-01 5.036622380645212615e-01
-8.410016805812691176e-01 -2.883178984132878445e-02 -1.148620188996062191e-01 3.365558440308659138e-01 -9.977109778013089347e-02 4.096048236514796548e-01 3.626268936483123539e-01 4.118436022526498763e-01 2.167289008149306528e-01 -6.979120856449442245e-01 4.999717429393849555e-01 5.730755847790535151e-01 8.081056754804776254e-01 -5.309596517020072071e-01 -6.360230734047953582e-01 -2.190132777746124915e-01 -3.765141543316753436e-01 6.394433474579817034e-01 2.433826823610738821e-01 5.222519506867437933e-01 -1.571696370634183826e-01 -7.734306351861212070e-01 -7.638309715641329323e-01 -2.514607014993884282e-01 -6.121952825406196119e-01 6.380331962965458681e-01 2.089312841782135499e-01 3.751560008927720125e-01 -1.941287364692727280e-02 -8.201913519724893797e-01
-5.268957995364670355e-01 -6.821544945773400093e-02 -6.049769370576411065e-01 -9.607649506017938990e-01 4.691566418212182454e-01 4.414179219852364389e-01 -3.413652477028144006e-01 7.102556478885864166e-01 -1.660540800406685447e-01 7.296770738675459889e-01 2.790558201709522623e-01 1.707314131507801647e-01 -5.984191766438873294e-01 6.269735957572528107e-02 8.016652804094266394e-01 -3.930254020417556227e-01 7.091795096739584858e-01 8.198492920896435221e-01 -3.198444544678819002e-01 3.732013514037460511e-01 7.926520947228976599e-01 -8.247833777066986283e-01 7.617910930070849185e-01 -6.174699218275215840e-01 6.897149944944414024e-01 3.210299819970202639e-01 -2.808775555443521754e-01 -6.999445921705321760e-01 2.583458065537571069e-01 6.969023457622921525e-01
6.495395299759272323e-01 2.655965507808218384e-01 8.974975824681995507e-01 1.594707112708439734e-01 -5.979876138106645644e-01 -1.598600285101613172e-01 -3.288403159047166291e-01 9.977553091049565781e-01 -2.857542872208812534e-01 9.852068623599534725e-01 -7.795732530344757355e-04 -6.515649153006041194e-01 -8.479465329489417336e-01 -2.605155260262484451e-01 -7.357629795476015033e-01 2.603133913034397784e-01 -2.378029066531154589e-01 9.753862930006499399e-01 8.915348766139352676e-01 -7.085030584828821976e-01 -2.120605018921935814e-01 -4.990018969042233493e-02 1.329357699964863471e-01 5.626408916197151999e-01 -4.577644749763516707e-02 -1.816203348894184777e-01 -4.371433043829161535e-01 8.109191127036476932e-01 -9.584283404660319805e-01 6.487899224608878468e-01
-6.177471459686962874e-01 3.807273699005500611e-01 -3.007030045897535753e-01 9.073482968062988041e-01 -7.436135183415848449e-01 -6.309492523610384929e-01 7.752738987770637635e-01 1.906669152689223212e-01 -3.940963954489187238e-01 -9.983618719575323430e-01 -5.643163253371128452e-01 -7.060911163070806573e-01 -5.857415789714393028e-01 7.781512399930546886e-01 7.609047610481188828e-01 3.960172254643359868e-01 -7.861345070317841965e-02 6.542790356575760580e-01 1.166571484691543599e-02 -2.736164058943534871e-01 -4.522722490182931043e-01 8.894120501878809426e-01 -2.205030717011943198e-01 -1.406985861492374319e-02 -4.995807985278058472e-01 7.604880917217269332e-01 -2.113045952110961523e-01 -4.149555747227871572e-01 4.400492160247095330e-01 -6.173653314663235525e-01
-7.515861109896105896e-01 6.851630620742705791e-01 4.810581486655083339e-01 1.328867070323093147e-01 -5.107631841803965678e-01 2.496779430842902270e-01 2.752506208658407338e-01 -3.254863429927876139e-01 -8.588430996235031367e-01 7.845457948155896144e-01 -7.646319616752787762e-02 5.233869855595262299e-01 -4.908116988682311166e-01 2.012495551102336522e-01 -1.247685465026889262e-01 -2.365427101853891656e-01 -7.527475990381755633e-01 -5.014705224939023376e-01 -8.278389881625708435e-01 -3.916368745820340003e-01 4.749228007765086690e-01 2.572831092014064014e-01 3.584347618208095776e-01 -9.950180211722627899e-01 3.566304784967662123e-01 6.508350405411858150e-03 -5.314823677716667971e-01 -6.567568719909405717e-01 -6.221024733612533497e-01 6.929190945726105832e-01
9.821760880165987251e-01 8.439477254565436182e-01 -3.254479764205440162e-01 5.172420725086228632e-01 9.785857961155003393e-02 6.357158278301816567e-01 -3.035742455051894731e-02 2.015329737118255748e-01 5.673682234493092613e-01 -7.786224212312569115e-01 5.959399235695151537e-02 -2.710496677333433801e-01 2.092182134883075195e-01 9.555640675808356743e-01 -1.880822611174859105e-01 -2.217378401635705654e-01 5.623567662085092733e-01 3.085978478981146189e-01 -1.978502116965800139e-01 3.772637038236020812e-01 -2.017529752879944627e-01 -6.994595898524366140e-01 -7.618689185997702673e-02 -3.463718836403176793e-01 -5.646450559793442237e-01 8.461456903606915381e-01 3.878232427724257469e-01 1.603906213854345841e-01 5.032691903344208573e-01 9.611484585196566899e-02
4.209334508088055649e-01 8.885442241780034944e-01 7.106827340605310628e-01 -6.672334660337491119e-01 -4.733646091683192392e-01 -8.609238546867206132e-01 9.574071633566034745e-01 -4.954353328630934916e-01 3.238361319052502352e-01 -8.398692574321892090e-01 -5.968504002392419627e-01 1.833511752250142901e-02 -7.901792818901565152e-01 -2.632028763538622473e-01 8.885745591862215242e-02 -3.415002342593628226e-01 9.089840355958221652e-02 7.923094514325830506e-02 -2.007256981185264744e-01 3.942484439728786150e-01 3.669923864525050927e-01 4.015004153501791073e-01 1.346717522767252873e-01 -2.845833108069434902e-01 2.258106965687649570e-01 8.587440577905802730e-01 2.118720538320382485e-01 9.470179733361946406e-01 -9.792890296146981866e-02 4.903455494492034994e-01
-9.251876363159314831e-01 5.366029449986150501e-01 3.044758168104763629e-02 -1.004064259421978411e+00 -4.453313481447949140e-01 6.695359948468471156e-02 5.343871259325284617e-01 -8.507110988799877482e-01 9.753962345397942935e-02 5.909991842001075524e-01 2.819709455188002534e-01 8.684642338203688583e-01 -8.505771616386724743e-01 -4.501945446655454264e-01 8.486697631169032308e-01 5.223804289766175168e-01 1.881631728812916959e-01 6.658904280386224173e-01 7.982346397786950210e-01 9.455646097398219263e-01 9.967062945510550831e-01 -7.102311407903468821e-01 -8.562015255754393817e-01 -8.548617814749712718e-01 -9.706504947906892111e-01 9.345829758919450558e-01 -8.017242164737032883e-01 6.748816236569071814e-01 3.748718005683641663e-01 -2.023298270543796851e-02
-3.091085927334097927e-01 -2.988345165856628460e-01 -4.963181477210072412e-01 8.102604291751296373e-01 4.512969679874214712e-01 -9.460159456508933085e-01 -7.856624814027680925e-02 -4.210059398159473609e-01 -9.451732726166452991e-01 7.694714605652375194e-01 5.289649948859731499e-01 -3.377769507509081892e-01 5.931132881823139025e-01 -3.356311188003562318e-01 -3.763752164771286823e-01 8.553570118611221185e-01 9.458741520538103131e-01 4.733242626890613730e-02 9.060385354148868808e-01 7.759594480215177281e-01 3.680351219612377350e-02 -2.429281089065920551e-01 4.242345338000525490e-01 -8.926693475135474842e-02 2.104208081002549580e-01 9.718362535806682745e-01 5.555772096028473994e-01 -3.418914639941414424e-01 -8.231489232507687159e-01 -6.308991920731407133e-01
5.237914788739215372e-02 -1.826363354403495454e-01 5.927903025988485730e-01 8.576362823590200080e-01 -6.439600476146750685e-01 7.240487199077633163e-01 9.145484194364739139e-01 9.265605737969372369e-01 -9.295975625011264620e-01 -8.848809708765649207e-01 -1.001476755612063174e+00 -3.720496584034814203e-01 -8.886024625832105173e-01 -4.018591382663281864e-01 -2.837352162354958574e-01 9.070821216147043620e-01 -5.075019395704967462e-02 -4.425146183895185548e-01 6.782671675184609276e-03 2.866034738102013479e-01 -7.779696339447627063e-01 5.252937155059499430e-01 7.056309929405388814e-01 6.915001577358000917e-01 7.809832634762866599e-01 -2.391305932932094869e-01 -1.040377097266373396e-01 -8.096161564030806002e-01 -5.541001473126662136e-01 9.491816943098566606e-01
-4.314480697051653046e-01 7.909138013618233209e-01 7.675349380924182396e-01 8.185443517111130607e-01 -6.867850453653261411e-01 7.642474906396781176e-01 2.643480454463787432e-01 -5.663299228954220554e-01 -3.157360988084091380e-01 -6.803713135250143429e-01 -1.241450641612069361e-01 -8.312530514510435564e-01 -6.693626577887912266e-01 -5.995766776416372457e-01 3.834333510584265192e-01 1.555031749467565561e-01 7.330931804588937117e-01 -5.084852879538750425e-01 2.581452914234760865e-01 -9.311631079130333610e-01 3.138562481325732345e-02 7.328832244106811000e-01 9.656018599552548265e-01 -9.773857242174724957e-01 -4.943964764736114570e-01 -5.529990264487617546e-01 -8.952238386626548694e-01 -9.883342083784073528e-01 -2.578552521647660065e-02 -8.948055134173403813e-01
-4.433161229473248643e-01 2.776829752121284245e-01 -4.226701127133217217e-01 -5.019064694469380639e-01 1.814007126158872774e-01 -2.372198174789164338e-01 4.051938719009597900e-01 1.273792169348226188e-04 2.573336393478660722e-01 -2.938044522386961122e-01 -4.297159305390771400e-01 -7.348153114494834215e-01 8.741608448070455895e-01 6.119631613669307413e-01 8.770969094886938988e-01 -6.262516379422095048e-01 8.522946940481419542e-01 8.724244157101969099e-01 -4.371916015706268643e-01 -4.507177231464515876e-01 1.015224441560315383e-01 -6.289994906763766158e-01 -1.226348960161538076e-01 -6.384855392497569282e-01 8.947283008800611670e-01 -1.236932537903718925e-02 9.452545233324515239e-01 2.789749492795785546e-01 -3.258639507109052647e-02 9.362094162570259170e-01
-7.135487396245496772e-01 2.653351403463702907e-01 3.134881612349878499e-01 -1.352035922735941587e-01 -8.812287229515629594e-01 -1.410989622722572806e-02 -6.967278071862348376e-02 6.147236099805282183e-01 -4.913660688180330749e-01 -2.171888935192576864e-01 -5.214028769430019139e-01 3.735004771698058890e-01 9.797670714274618886e-01 -6.449175163269971200e-01 6.437258569367348970e-01 -5.392373688111637975e-01 -8.943355604997933472e-01 -7.222137589622980025e-01 8.703884979764777707e-01 7.770815957506079785e-01 -4.215131734703421174e-01 8.956429739504067067e-01 6.993710079978918692e-01 -1.317067838317709239e-01 -6.390474163871477653e-02 2.594798214101362022e-01 -6.719728229959112120e-01 -9.801610745181551509e-01 -4.693539080391321283e-01 -9.690346180381863572e-01
3.489978936025465162e-01 1.030011074797322623e-01 -3.573858829107337542e-01 5.604681350522717764e-01 -7.084269595701740974e-01 -5.102263407043449162e-01 -4.152928111843812720e-01 -6.080216874261696880e-01 -8.244842607529134781e-01 7.399532313085556146e-01 -8.239632156184349965e-01 3.674226351152502512e-01 -7.591980658575492313e-01 -9.786020937849500001e-01 1.148166393025692317e-01 8.141179691747012503e-01 7.200339232583847782e-01 -3.230476782376671130e-01 -9.452318577167059255e-01 6.017184708056748654e-01 6.119799014472654397e-01 7.374797001277474395e-01 3.392875821141791981e-01 6.155582907974659346e-01 7.949965646013532616e-01 -9.265025426600941028e-02 1.169355643808437928e-01 1.141147179916749549e-02 3.839678247376231979e-01 3.659598065798490563e-01
4.062727172663294084e-02 6.569362961709426241e-01 1.155877357973289499e-02 6.497171247704638386e-01 -4.363098237135141222e-01 -6.430103340450235017e-01 9.397411406894280450e-01 4.838790509121535521e-01 -4.804166133911709213e-01 1.624706845823433721e-01 9.105245070763736681e-01 -8.384921843758423865e-01 -8.329315858765178326e-01 2.382696628398144334e-01 -5.510130423280845680e-01 5.303679134670162831e-01 1.363050858982102209e-01 3.323761804469904657e-01 -7.843721984108151801e-01 -8.314338971268864231e-01 2.502421366109792711e-01 -1.805374777319590507e-01 -8.254949522560364183e-01 -2.578721099676217765e-01 3.442888193136972586e-01 -6.208251996168285824e-01 7.914582170574082642e-01 8.996927777601746445e-01 9.231450848690676558e-01 4.601651154805204147e-01
-1.874231446233698417e-01 4.874983927024392205e-01 -4.240262414504969435e-01 -3.711655552185075813e-01 2.117927224357158966e-01 1.896942668158352330e-01 7.573219526316221639e-01 -4.907984886788461232e-01 5.323767304056434835e-01 8.820265336378025900e-01 -9.979341346845307381e-01 -4.782176399579030068e-02 3.140806580494586164e-01 6.866464278390449483e-01 -6.325211762479965305e-01 7.123184759747436257e-01 -2.712690402859441186e-01 7.845478585523448789e-01 -9.445765197552700165e-01 -8.292197217536587672e-01 9.628209315082250086e-01 2.190038515469932001e-01 -1.647353063716334720e-01 -6.615716306126189217e-01 2.998023061793799737e-01 -9.260498632812843578e-01 -3.767721730785906775e-01 -3.530416060218493080e-01 2.148837870291071539e-01 3.016625133513941570e-01
6.921091984729386137e-01 8.551618851950868461e-01 3.209154552221993306e-01 1.563478368170763133e-01 -2.025689127419831870e-01 9.332249852842839921e-01 -6.918416563352851600e-01 7.901736172972968486e-01 -3.779738642303169804e-01 9.697817933220798103e-02 3.641325168656297517e-01 -5.270606973476892332e-01 -6.645266298994567666e-01 1.696402685923192877e-02 5.837277511693432785e-01 3.848289243341511678e-01 -7.620533256539703260e-01 8.014844301434660423e-01 -4.052486590168991043e-02 8.933533584792952009e-01 1.068674124965314221e-01 -8.303963566792942341e-01 -5.950739286509287851e-01 7.084759458327654080e-01 4.118547335294382439e-01 7.898790403058484344e-01 -3.417079964114004831e-01 5.600279327525226059e-02 3.007962649682396350e-01 1.885817071733288941e-01
-5.370741289315044131e-01 -1.463573011035288474e-01 -5.037770718796503733e-01 6.912299244622908123e-01 9.733548899361652573e-01 -8.668583937352414281e-01 4.278560645339226642e-01 -3.397688956018514173e-01 2.508707566228658425e-01 -4.837407014362580249e-01 3.020152186169902109e-01 -2.577056310745409196e-01 -4.103582409260726482e-01 8.235263473955976021e-01 8.849977484524149673e-01 2.271000531202709283e-01 -5.710644383386147549e-01 8.788377418123187734e-01 5.009070934466481884e-01 5.021796146456121157e-01 -5.765573303030275820e-01 6.603130523245985817e-01 -5.198096916775798437e-01 2.632414905003204186e-01 4.214791397991726196e-01 4.847668594142033882e-01 -2.194705908008380835e-01 5.196507934321947797e-01 8.058718042434198647e-01 1.748400384751538361e-01
-8.191805686104027817e-01 -7.420480317154478644e-01 -7.894749466744261923e-01 -6.545450733542399480e-01 -7.471382194206299676e-01 5.566017801352551864e-01 -9.211769756311114499e-01 -5.168831653182719421e-01 7.581328027169309536e-01 9.470377216725871516e-01 2.108440154540962563e-01 9.524765291207768492e-01 -9.130969165700464352e-01 8.971455367520151380e-01 -3.774078350876657328e-01 5.979456807231859905e-01 6.212582068938030666e-01 7.199971831606897243e-01 -8.289837819499790150e-02 8.612887843308967284e-01 -4.842140311459202096e-01 8.688909850591692852e-01 2.382392665033210566e-01 9.708898298896611045e-01 -9.347122680748152224e-01 4.503333176654167325e-01 1.311084707607621525e-01 -1.515190520336084923e-02 -4.815637486985260285e-01 -3.463386302672497585e-01
-5.010755865972245093e-01 -5.614641793498784672e-01 5.993216750496777045e-01 4.790011796516724374e-03 -8.336202226060045462e-01 5.539683840547606763e-01 6.729815216746182216e-02 4.787755746927639944e-01 3.078738628624266838e-02 -2.001081520297365302e-01 9.724935648725900883e-01 -9.435147596741746412e-01 8.655278159297166152e-01 8.617099355199360211e-01 -2.181625769970838569e-01 -5.710702577333603980e-01 2.384265958664779639e-01 -6.440553290596611191e-01 6.064163886560167693e-01 -4.921322882445295921e-01 -4.183876899346441469e-01 8.318315800199140853e-01 8.058336669488179727e-01 7.076178346104344818e-02 7.256779611572312660e-01 -2.949348623898764288e-01 9.957685564498046649e-01 -1.326205211900459702e-01 -4.103759764030092683e-01 -9.168515321016654784e-01
9.793893834057543213e-01 -7.022473823469468912e-02 4.691239342631304821e-01 2.816152480241160827e-01 4.461868053948969126e-01 -8.977781878132107263e-01 8.400908109535618618e-01 8.536824480387942282e-01 1.039900487964404430e-01 9.278317773689753745e-01 -4.380901505017372188e-01 2.042932534407739253e-01 -2.070746197845654835e-01 2.560464707439886745e-01 -3.987085445562746355e-01 6.387167693132371760e-01 -8.604280834819486579e-01 -9.162448543733139328e-01 -9.012068474974297416e-01 -6.990899432981497741e-01 -2.093007574672722249e-01 9.107830732412718344e-01 -7.784313251829042546e-01 2.950899134680078362e-01 5.524301691250968482e-02 -2.935151880345032160e-01 -6.036002109154966488e-01 -5.588128660466777919e-01 -9.123570122274784477e-01 4.262972489421831823e-01
3.076640874140998405e-01 -1.121984042613002747e-01 4.378323353011462915e-01 -7.800487777435315406e-01 8.774383673815666640e-01 6.938686956117454674e-01 3.183498671048707873e-01 -2.423350751879128906e-01 -1.669217030391163259e-01 -3.569233458008148202e-02 8.703599947393579894e-01 7.271859098245420094e-01 -4.415229757897492363e-02 1.076574154148757928e-01 7.518471945744488183e-01 8.983831720440897950e-01 2.768562160931729021e-01 4.971654388539734626e-01 -2.967617803236867191e-01 8.360561310381759981e-01 6.733154244084861295e-01 1.046353067585528568e-01 7.352598703836988880e-01 6.997436957671278046e-01 6.137165038221858993e-01 -7.401097275747373638e-01 7.281395567762125043e-02 8.009265979973329008e-01 5.417000297710260481e-01 -1.588840074472109565e-01
9.555928458870279751e-01 -4.982347206721012278e-01 -3.339455858271142552e-01 9.084305284227527366e-01 6.174336780365164978e-01 8.001083143676922527e-01 -9.768197681403750776e-01 -2.358614735657389438e-01 -5.291292669181562047e-01 -4.081298207037105663e-01 4.756710446313398011e-01 4.480403266212010793e-01 -7.639927596945678134e-02 -2.701635337671887682e-01 1.707731158228006640e-01 6.738777225193763598e-02 1.006358712343047163e-01 2.309354048930455372e-01 -2.085655704541548860e-01 5.434395039738755262e-01 -4.974741034814572083e-01 3.141592434038641413e-01 9.218252570412573954e-01 -9.929247356171826411e-01 4.456217841878385988e-01 -7.825229937478495046e-01 8.864319276957348392e-02 2.533949047345904759e-01 -5.140938304865083630e-01 8.279818484413984381e-01
2.444312714866559155e-01 -5.365721571875576856e-01 5.402098713215806036e-01 -7.890409006638048339e-01 1.104428122451781014e-01 -8.100866907543774476e-01 1.620166120058317283e-01 -4.934677062555371529e-01 2.984355196521675802e-01 4.316536207278873216e-01 4.808299651798993851e-02 3.150209128527574620e-01 6.265881165216427018e-01 6.150892053286638461e-01 2.394785221508186901e-01 -9.778896752715203478e-02 -1.841168737981222492e-01 7.503738664389402180e-01 4.065818431806514366e-01 -6.301602368593005599e-01 1.310533802648458646e-01 8.181228060248260103e-01 -6.984145210564076667e-01 6.910554934770553048e-01 6.404456973815049192e-01 -1.361416375886903693e-03 -9.244922784931552950e-01 -7.051827902450280572e-01 8.452763226560400245e-01 -9.117253595137967404e-01
-2.557156486456400590e-01 2.369657995075927226e-01 -6.062611278616099053e-01 9.618093288682524333e-01 -6.880365345504051433e-01 9.049559195419060176e-02 2.369018730626444580e-01 -5.345455610394571622e-01 -7.233216956586986657e-02 -1.797314141279146918e-02 5.291489588120371623e-01 2.686160740184074247e-01 -6.489451756756585421e-02 3.372533504246485458e-01 -9.248191368156699621e-02 5.141857273399116218e-02 3.143776506236558022e-01 -6.252751168374984791e-01 5.870296436638017257e-01 2.037990175658960235e-01 9.584659166064640745e-01 -5.542061263458292197e-01 -6.080222507481911065e-02 7.927375388296147296e-01 2.110158669927477970e-01 4.534522993824722237e-01 -1.679506049068985873e-01 3.670381935758006420e-01 8.922954044145429142e-01 -5.989528997469885097e-01
6.157771064629795621e-01 9.401187877974257479e-01 -9.760350052119979303e-01 -5.701087003334243120e-01 -7.650893254793564857e-01 5.473967248356255144e-01 -8.355506047467976538e-01 1.012073896140011753e+00 -2.391602761576905600e-01 8.055693766470130024e-01 -6.386663068246353214e-01 -1.143788346376052034e-01 6.914486239862781547e-01 1.831118673293988808e-01 -5.819225946456838688e-02 2.406931881175333396e-02 1.310636177850764139e-01 -9.273206609507628206e-02 -5.772969462753765324e-01 -7.797407500807475023e-01 -6.907883167021271476e-01 -8.880993827669682039e-01 1.352822823579542533e-01 7.007628827818270789e-01 -2.739858634658120518e-01 -8.494558251754011913e-01 -1.274482427095982862e-01 1.849152150155329855e-01 -1.480629356411817810e-01 6.262354922745053676e-01
8.797836552909252816e-01 7.503390383760931703e-01 3.605420354350870604e-01 -5.788207475153495790e-02 3.634711556603325011e-01 -9.570203007328009770e-01 9.682617251284743043e-01 -6.345732035984780195e-01 7.668453410099942413e-01 6.027621545972459138e-01 5.719507070716168817e-01 -4.484607474028913798e-01 -5.557029441840051209e-01 -1.586338887150948174e-01 7.420676032430528757e-01 -1.035498584699291319e-01 8.380226615370950372e-01 -2.414762589680122529e-01 2.907559328803986931e-01 9.501354426660892916e-01 2.925404958751695594e-01 -8.791884230148055979e-01 -5.200772754525069541e-02 -3.180144267307115080e-01 7.124059179978156631e-02 -4.411659594247621108e-01 -6.994670461806093975e-01 2.982948931420564276e-01 3.646904757907990513e-01 7.389460426558793760e-01
-7.469491122487900148e-01 6.175790415084911888e-01 6.038540512179444431e-01 3.224912985210152128e-01 -5.961959855093504901e-01 -4.455097009100268957e-01 -1.473694463508829766e-01 8.780806804340718363e-02 -1.188203132107488458e-01 -7.320418527062938496e-02 6.502419495082714107e-01 7.577491790238798375e-01 6.391905094994150272e-01 7.210567676899910516e-01 1.839895572093832865e-01 9.252043913446661438e-01 1.586455657730700686e-01 2.829300166242378900e-01 -3.088676318236739382e-01 3.659406114269783128e-01 -9.060255861403860855e-01 -6.590281068591276048e-01 -7.277659840177624906e-01 3.278960693917550295e-01 -6.299260923827768588e-01 -3.328104108535538397e-01 -8.369128131167760110e-01 -5.593630753242947451e-01 9.315922688292237464e-01 3.122230695629693575e-02
-7.009963594420988153e-01 7.061032120987525973e-02 8.386604986382076854e-01 7.337703567971020080e-01 -1.994913062595564945e-01 -3.901651611812866904e-01 5.290088720501985309e-01 -4.435354859913947512e-01 -5.755012264402626920e-01 -8.568543360491817085e-01 6.692139712156983666e-01 -5.514403064020280409e-02 1.238847959728099773e-01 4.430783628760741610e-01 6.284286577064950308e-01 -1.226389827129914789e-01 -7.316218282826685293e-01 7.632493776527482510e-01 -8.719264578702905499e-01 9.056776125807090017e-01 1.386148704399113030e-01 8.380942543952354384e-01 2.243556323342933145e-01 -4.784992994113794751e-01 -3.827434193541497942e-01 4.859308349172136721e-02 1.018378592181793607e+00 -6.494271875482714451e-01 2.587477214852542187e-02 -2.934187775940663157e-01
5.561562276971979690e-01 6.111608748891501630e-01 -2.134089156156012135e-01 -5.906482813712343738e-01 -8.210178393921643281e-01 -5.527030947118324322e-01 -4.606297840452022174e-01 2.773070644646861704e-01 6.417300423175547053e-01 -7.694761913368535211e-01 8.320911790289561294e-01 4.082658133078042040e-01 4.857560225858180147e-01 9.497331989745303460e-01 -1.226782407726052376e-01 2.885161426608053373e-02 2.057437515331818623e-01 1.318092858517440624e-01 -3.162317963860502568e-01 -7.942736708514288591e-01 -4.404020097351844520e-01 6.453169710925826807e-01 2.910328543438283067e-01 6.390482690314629455e-01 6.433197353392024198e-02 -5.595631736469260931e-01 4.142822706301106384e-01 -4.091634249269986978e-01 -9.253602942901951733e-01 8.253985120819065102e-01
-1.378883168468520992e-01 -1.422776837913523607e-01 4.055841520240150433e-01 8.178844709915559230e-01 -8.040701967749074308e-01 -6.052937140906644586e-01 -3.472364161497349389e-01 -4.205035331321675951e-01 -1.258257055067070751e-01 6.242501606044904561e-01 5.934748015977781010e-01 2.310417800522419352e-01 -5.010817325727940919e-01 -6.289269381700842709e-01 5.710097616309055546e-01 -5.543319332983760450e-01 -6.758464269093769627e-02 6.074429292879158782e-01 -4.403965549929144685e-01 -6.331851367460431534e-01 -9.383517476303020466e-01 -5.274205394471578323e-01 7.265270814035758029e-01 -7.247840287173356044e-01 -5.203717034408870123e-01 -9.666630874980119970e-01 5.817014672162897915e-01 -5.887696823971098059e-01 -1.503924730489094030e-01 -6.704266226227598713e-01
-2.229266376162527541e-01 -1.138005776276868330e-01 -1.172448621677764508e-01 -3.408636337389898685e-01 -7.426193715502220627e-01 6.429390303856075128e-01 -7.308029124405097665e-01 -4.935907536670736291e-03 -5.361272967582642046e-01 -4.153974321917087154e-01 2.327923013799227947e-01 6.936089114023331892e-02 -5.923151785103512035e-01 2.137118349100850315e-02 -2.021863585901919336e-01 3.732263982258475221e-01 -6.414979752134778446e-01 8.425664676538491271e-01 1.690242464272011802e-01 2.628766895830175060e-02 -5.040630712750819864e-01 -4.121488039534114689e-01 -1.732851102013428096e-02 1.034475400419006430e+00 -6.942472070916688720e-01 -4.606268293284214166e-01 8.333818149971284894e-01 2.302170859158037819e-01 -3.899153729730641116e-01 -3.122008665457389198e-01
-1.771513663423814611e-01 2.679001527149037498e-01 2.956181228956624718e-01 4.790013859804600482e-01 4.258314015903317817e-01 -3.625025871496674879e-01 8.548134947981744780e-01 7.615652178195450039e-01 -4.954794125052491838e-01 -3.838897328003800791e-01 6.514743771176618736e-01 -6.979045807015337166e-01 2.819085040150943189e-01 -2.161357485311450333e-01 8.040225898319158793e-01 -3.057904106838780778e-01 3.619243802460049841e-01 -3.841466713396483601e-01 9.165639377681439326e-02 6.003465720687867213e-01 -2.622090538376211644e-01 -4.329318635365989043e-01 3.524312915954974645e-01 5.275804985195844399e-01 -3.919651261400526332e-01 -1.265191985660967522e-01 1.066813831801156853e+00 5.296094175534697968e-01 3.840051386674460110e-01 1.984942205368094292e-01
6.130770726089301847e-01 8.931847433500429423e-01 -1.147179901526719448e+00 -4.044806123707357370e-01 1.718925105990493363e-01 6.470989421559566468e-01 -8.211723701991660018e-01 -3.849463182376400977e-02 -5.618281479376129317e-01 -1.399731058331145916e-01 -1.351061723881011589e-01 3.407352154171462422e-01 2.651161243053299678e-03 5.172622016015985258e-01 3.161746159169454007e-01 -1.833420447997073377e-01 -1.075606560344685159e+00 -4.207651724368692836e-01 -2.566207508361327272e-01 -7.226210412891352908e-01 8.552146069936730766e-02 4.260658588039334949e-01 6.481150380070470340e-02 -3.656899077164186829e-01 3.345539596684630190e-01 -6.487322172150599142e-01 -7.402217398134256499e-01 2.634492790862085765e-01 -1.573699073200083842e-01 3.840729812546703759e-01
-6.285484643239604985e-01 -7.881995067315678005e-01 -3.673741862056764118e-01 2.435180726450668354e-01 -7.519787713881361801e-01 -4.433094164594278963e-01 -1.075932325571838793e-01 4.506823901644805286e-01 3.633228372346621327e-01 -7.846422980298973782e-01 1.099505991217265000e-01 -1.919315940130389142e-01 3.445497963342764036e-01 -4.068868964875961836e-01 1.984844275932560465e-01 -7.074590915733316443e-01 -1.032569500407521268e+00 1.089738819493455552e-01 -5.740987733274334204e-01 2.782223807049696296e-01 -5.079704285550013659e-02 6.825988919363251695e-01 -1.679663073855466315e-01 9.615368149943117615e-01 5.207723962515378724e-02 -6.807206178429854593e-02 6.631664218115409515e-01 4.897742901745261862e-03 -3.186301183286214256e-01 -1.519683984548066309e-02
-6.307356971269152401e-01 -1.669163134123889392e-01 -1.075866741251674918e+00 -2.088523922477015793e-01 -4.159447384004014148e-01 1.902947470384680484e-01 -9.885507030422607810e-01 3.519190896639881050e-01 -5.138815182773519563e-01 1.334482240098469885e-01 3.116890068611242182e-01 -7.597352240507891652e-02 3.279428778337963313e-01 -4.089414956237491516e-01 1.154819730763397168e+00 -5.491244255298065591e-01 8.259362769936107185e-01 -4.948099806090537900e-01 2.419669298030836802e-02 6.484773645964515554e-01 3.247435391926519199e-01 5.034167508058173812e-01 -8.954387103200366071e-02 4.866727405570855924e-01 8.546428425599605916e-01 -1.398236517190899753e-01 1.197616668455384892e-01 -9.926522812287873476e-01 -2.922661871527368338e-01 -5.373328040414549617e-02
7.227652715443060316e-01 -7.538258568028163298e-01 3.173600289382697559e-01 -8.175113510512170556e-02 2.356300990893739622e-01 -8.197946969145059049e-01 -7.653392891074891624e-01 -1.929657984063145870e-01 -1.108276152097456668e+00 2.792544253763438178e-01 5.725362972767416014e-01 1.619170390688934036e-01 8.762218717376168975e-02 3.560055573264056528e-01 -1.996166892309144125e-01 -3.117957363538544358e-01 7.233704290162906725e-02 6.721999025916506332e-01 -5.739252052228203116e-01 -3.511362218425715942e-01 3.853293141654867693e-01 -2.256575565487682344e-01 -8.872892057985038994e-01 -7.170878163147772488e-01 -5.874778626121235359e-01 -3.717979455784716641e-02 3.165467444587390933e-01 5.824947881280659878e-01 6.693344618710205252e-01 -4.480734743959403077e-01
4.203472428277982287e-01 -4.479209659163481683e-01 -3.595503696255576975e-01 -5.442389657894309840e-01 -1.615374196815237973e-01 -4.775389639966783895e-01 -3.887411967213820208e-01 -5.419330501598819128e-01 7.986453555036955310e-01 -1.175514196859216154e-02 7.385843576326545090e-01 5.273467602538225441e-01 -8.395501774314174936e-02 6.621203884464534895e-01 3.932772481353233873e-01 -4.174183798461235106e-01 -3.562498773843279093e-02 4.456453798662064480e-01 -3.866728314328072291e-01 -9.763872078393284193e-01 -5.716356048954039926e-01 6.522399773352869357e-01 8.656188497869333753e-01 2.130379450543764264e-01 -7.173045455339565057e-01 5.040903198534292251e-01 5.294352045625625586e-02 3.350616796055275737e-01 5.981920186739553280e-01 8.182928755424074829e-01
2.414691935752725782e-01 6.426277978237612265e-01 4.130849343231012272e-01 3.784631097468499350e-01 7.198923034256322628e-01 9.254118426033637324e-01 7.709739346770756452e-01 -8.524048477319352835e-02 -9.314905552255977605e-01 6.302379673298148521e-01 2.450783450677302897e-02 1.015362116214858501e-01 6.503850679533212942e-01 -8.249982322375785104e-01 8.300206453829840347e-01 -9.371317032074185649e-01 3.431463724090100809e-01 2.008131003009438753e-01 2.944687428218775715e-01 -2.440596406285545639e-01 -5.192317228912023408e-01 7.375764466181680690e-02 7.617470724153224682e-01 1.072162419228238073e-01 3.464017229091367334e-01 -1.405473586387202267e-01 9.861553434538307128e-01 3.952912198685606948e-01 -3.560260839040500502e-01 2.634406183181450811e-01
3.285971925438812419e-02 7.118397724314925457e-01 -5.175808293102635016e-01 -8.592363576235448885e-01 -6.165666262777996787e-01 -1.755447845038179966e-01 6.709633789406209692e-01 -3.936631959363639521e-01 1.656159851059086641e-01 2.319460869085459842e-01 -2.121406145105512175e-01 -8.927014572130895775e-01 4.896841386510676908e-01 -3.400258215248089799e-01 -1.529317525416170054e-01 -2.577325459064730984e-01 2.962372263376760739e-01 -7.961914881792777621e-01 1.066158663582076754e-01 -9.605826855743196946e-01 9.249164539307859201e-01 2.320655596457434633e-01 -2.472478315047675068e-01 -7.348295483895626035e-01 4.113774506433253708e-01 7.947022078040751891e-01 -2.813123870859406961e-01 4.754142820054180762e-01 -4.748524853050977712e-01 8.892529221463686406e-01
3.877431985458882902e-01 2.163975501690126868e-01 8.240303392627629231e-01 -5.062450656282335704e-01 8.477906820585610070e-01 3.676763750476931270e-01 5.187437414654932910e-01 1.798832118170006211e-01 6.226558159255405345e-01 3.929390403935267839e-01 -7.121228324900974460e-01 2.166891618481311399e-01 -4.413544238125836072e-01 8.599950524137227603e-01 -5.800167924728558688e-01 -4.341486040845649041e-01 -9.254614503793828773e-01 -1.014706665639382582e-01 1.240441070117647981e-01 1.547326481482829974e-01 8.142288442060974241e-01 -2.866259367571772354e-01 -1.112876325800010308e-01 6.875104205329695128e-01 1.594613791491192589e-01 3.028114907916422127e-01 -3.529394789883589234e-01 -6.354802616100001245e-02 2.217027764478266549e-01 -7.303989420391150400e-01
-9.390849337520467133e-01 -8.057394347608088925e-01 -5.776930859102295118e-02 -9.514681569524935378e-01 2.523202445328750487e-01 -7.991776923365725427e-01 -5.032286810458822535e-01 -1.312717173924890512e-01 -7.803824778998910139e-01 -4.590686919485539863e-01 -9.584194974571078607e-01 9.479515558484706839e-01 2.228540806765044735e-01 -2.374540210454016698e-01 -9.448971163435370135e-01 -2.198006290085763592e-01 -1.020768024932015294e-01 8.635310640331158583e-01 -4.384311297192293733e-01 2.307541154627525126e-01 3.484319771106209052e-01 -6.175727751824886536e-01 1.011679510831377596e-02 5.737518212686719687e-01 -8.065100978492151240e-01 2.098703438839358559e-01 -9.107688249191070451e-01 -9.972751556447068122e-01 -8.821859028676987124e-01 -2.775271765655306852e-02
8.537589095891012780e-01 -2.020911178881743819e-01 -8.499907539486445396e-01 7.308731489704746176e-01 3.718886871872230382e-02 -3.611722851836020043e-01 9.263528252156735254e-01 8.820486215167736566e-01 -4.775650863962420667e-01 -5.972166943666789019e-01 1.775108220455769714e-01 6.735100831435991697e-01 -3.266878845706441270e-01 1.737266828973214328e-01 -6.763411161051559040e-01 -6.094695022287858199e-01 5.229355368729157183e-01 -6.993376379360888295e-01 -4.648943730741014746e-01 3.789906523959616358e-01 -9.627265859485584221e-01 -9.309989573111258077e-01 -4.267248166839340273e-01 -3.239529660471602290e-01 -2.755650210999402994e-01 6.129957147124457384e-01 -9.223307166223063680e-01 -2.862914000342460796e-01 2.763001542518273013e-01 -7.000042702573241460e-01
7.183859651595772000e-01 2.919344473821195995e-01 -7.679633644296010031e-01 -5.787845223318860421e-01 4.900901382150031349e-01 -1.931862739986889288e-01 -3.105987844420697239e-02 7.749847467136784518e-01 -7.220620628165178578e-01 9.287457476035583248e-01 -9.147549030976073192e-01 -8.027859209038962218e-01 -5.535232477022198339e-01 6.124921738017845563e-01 -8.973997365874124277e-02 3.070489090222126571e-01 -6.510441609504087346e-01 -6.665789532883099611e-01 4.377648376059999069e-02 4.805872676975779800e-01 -7.434701889708479616e-02 7.394357509621696245e-01 3.202870433568885122e-01 -5.013712467821376251e-01 -5.301954969844517862e-01 -2.521597727636160635e-01 5.130951700900832080e-01 8.745432953070260140e-01 7.240844671428479096e-01 -4.697553377356650794e-01
-1.754421440428604040e-01 2.230881989006430199e-01 9.366891163161672473e-02 -2.214501091820686440e-01 -7.971584462374465829e-01 4.244896087945111418e-01 -8.237296721491322860e-01 7.321548587474391301e-01 7.268968806652691406e-01 4.169015830307454262e-01 -2.715085238462777717e-02 3.982931308258330638e-01 -2.100258797964698054e-01 5.949919685866973396e-01 5.728341645596954912e-01 -6.889428322527566539e-01 -3.643648992988044455e-01 -3.120336464280193400e-01 -2.716594026929484151e-01 1.332911133757974653e-01 -9.166251149594244474e-01 3.199394379277982203e-01 -5.967364818867313403e-01 -1.670748876537837546e-01 -9.821468699860003149e-02 -3.025464609047081588e-01 -2.334393797439748841e-01 -6.393878783044812941e-01 -8.637398852118511883e-01 1.025132978717031573e-01
1.917338912333022005e-01 -7.090004215565823831e-01 -5.381165833557517431e-01 -4.272457369252351533e-01 6.615027338088514952e-01 -6.931581176751753226e-01 1.042776151069628732e-01 1.362794353843848061e-01 -3.131598137826554495e-01 -2.987656213860927501e-01 9.182240350384045513e-01 1.066878989190414018e-01 3.054624018019094223e-01 -1.851976711117342411e-02 2.932999633435811049e-01 2.105015710141240337e-01 -7.096534141598087597e-01 -3.306389342308135859e-01 -7.913201308213313467e-02 -7.443566767872302758e-01 -2.738533527910036458e-01 -5.437167314141555519e-01 6.950052045408039447e-01 -3.170518399574027146e-01 -5.464213586674702139e-01 -1.836371942954355685e-01 3.661280952444938563e-01 -8.687560020771503133e-01 -6.385415727940204622e-01 3.886138778474572675e-01
5.045132096081863526e-01 2.355085592201358047e-01 7.583971210731910162e-01 -6.623996198448127704e-01 4.070954644028570435e-01 8.345203181600171494e-01 -6.985206817938836021e-01 -5.124720452076376720e-01 9.336914418160846552e-02 -3.117613260480049941e-01 3.812781615647882205e-01 -8.848647631497850163e-01 -6.784717153530803735e-01 4.324766129592430008e-01 9.412373968678877656e-01 8.591007530246812518e-01 8.021339868456274225e-01 -7.445133721928134385e-01 -7.081421638567930721e-01 -8.554704863702546902e-01 8.508046628958187974e-02 7.649723458047430480e-01 6.358380013377695761e-02 5.634305707918798589e-01 -6.230924261774768436e-01 7.262225203326699852e-01 -6.251504585492970723e-01 -8.904717478669534891e-01 -1.570179791438037764e-01 1.102088600168769084e-01
9.414840190427891109e-01 -8.164923331176170418e-01 -4.521638135408900805e-01 -7.897858618359010485e-01 -2.191207265247672176e-01 -4.219778336244606187e-01 2.660069893581318290e-02 -3.034866364985060461e-01 8.564560365002020781e-01 5.798955927660807141e-01 7.220227372279510725e-01 -7.409981081142082981e-01 1.501403339774278756e-01 -5.704349282302825230e-01 7.364771428817780130e-01 -9.699611564931518437e-01 -7.885115697398956680e-01 -2.478858489053687997e-01 -1.958121878136129812e-01 -4.455598340426347725e-01 -8.078740024801216446e-01 -7.625391897748128311e-01 -3.641104923053322118e-01 9.015856681554410557e-01 -5.851868703613520850e-01 4.945606421184449708e-01 -4.836226719850320599e-01 -9.255194887784303770e-01 -9.678955816658758593e-01 -6.945881376376470406e-01
-7.588413161024372411e-02 5.119043871155110059e-01 4.575283236795687491e-01 -2.951401721191367900e-01 -4.172144587879458855e-02 6.281475304359174228e-01 6.768057618303937595e-01 -3.601666016475762455e-01 -9.914683733682281286e-01 -9.057173796695581203e-01 4.756120588955120021e-01 -4.558464577996001466e-01 -3.702841631278944168e-02 -6.159344645123776552e-01 6.942843926198380977e-01 6.888662203320548155e-03 5.457036047914945454e-02 -4.238404123076499053e-01 2.400445173965855966e-02 -9.960738270858072729e-01 -4.454133623553756527e-01 -3.024670501354497221e-01 -4.321486581349923140e-01 -8.281212763372822749e-01 4.356259905016213185e-02 5.769628247024735090e-01 8.849424838292101470e-01 -5.425518475598084187e-03 1.881768998662636250e-01 -4.183470000385190457e-01
-7.008491339311646584e-01 -7.355346354494569638e-01 4.642560722955588748e-01 4.688708610914578134e-01 -6.412999367128789929e-01 -1.750449781333090482e-01 1.904518398207677987e-01 -7.494297930613095238e-01 5.696545009231082091e-01 2.400486642405414983e-01 2.295614604892615984e-01 4.021517095896902649e-01 9.743661862490781145e-01 1.248075833110671856e-01 7.321997833451472371e-01 -1.629728202985096519e-01 3.034688836348510277e-01 8.518623187993594748e-01 3.288572901455065201e-01 -3.938425934431588060e-01 2.358672146393022140e-01 -2.956895833626257963e-01 -3.549327341000772518e-01 2.200219244868550916e-01 -6.879265646778310872e-01 -3.083842204212406540e-02 8.936658829735554255e-01 -2.349855020288281748e-01 -6.227725686031617691e-01 -6.477934116169500878e-02
6.829193950276671865e-01 6.856037398970825647e-01 6.568789363378531032e-01 -9.782475471033308390e-01 -4.659113994674607961e-01 1.000819644086925253e+00 -7.586055098446236045e-01 -1.925158648367573597e-02 5.759793446955441265e-01 -7.558994046556549717e-01 3.235305366748023603e-01 -2.385088876659500687e-02 -6.114134044202448326e-01 7.634723632310320696e-01 -6.337153356276180594e-01 2.779688697133927966e-01 4.801046230451458396e-01 1.261123346645033894e-01 2.566373017348270169e-01 -7.621004727408524637e-01 -3.969242521152134273e-01 1.746453521307696766e-01 -2.090370742454607522e-01 3.269167040183194040e-01 7.014269224018730986e-01 -6.208054142979090306e-01 8.082352434667464669e-01 -2.366756818315425281e-01 8.855013181949960011e-01 2.318673427144851695e-01
5.839413178031509499e-01 1.317932971220590194e-02 6.969250202948773509e-02 -3.422229418366658504e-01 -7.409875689107269237e-01 -2.309577854563033272e-01 -5.729519549679042978e-01 -9.699054577922563425e-01 -4.644626681239427679e-01 -6.265781756857781160e-01 7.485994158978543922e-01 -8.372677759904932904e-01 -6.322450776974501974e-01 4.099099986911768356e-01 8.126838675122303179e-01 -4.980814885966788896e-01 -9.630845637646044954e-01 9.324208587252363900e-01 3.669922335389683155e-01 -3.747208661714634403e-01 -6.054381440072053450e-02 1.995672003021194130e-01 -2.516770949048475203e-01 7.511364695006926828e-01 4.398094704231975127e-01 9.060561998446846621e-01 -2.879000990429304574e-01 8.740365442012852926e-01 -4.097898348851279626e-02 3.017790551959459444e-01
4.789082734145869713e-01 6.039256944668278670e-01 -2.019001280487915106e-01 -6.820080100987149785e-02 6.350969554191910893e-01 4.515375181627921397e-01 8.858686147176043635e-01 9.291300303686785833e-01 -6.695277054783416171e-01 -5.277556656529184265e-01 4.159672383429125486e-01 4.965562729750327420e-01 2.075234669634072326e-01 7.444165374470630425e-01 -5.219016142475646491e-01 -3.225134025020859885e-01 -3.993852974998449157e-02 -3.385211174285395752e-01 1.113006355908173900e-01 3.700025648370961484e-01 -5.526954275009846596e-01 -2.740573337903048912e-02 9.937078308070501631e-01 -3.393027490564540782e-01 -9.310190708619108246e-01 6.345367513165324214e-01 2.150516138763356594e-02 -8.910878687966435896e-01 7.840484584782047017e-01 -1.689915490957922539e-01
8.766231071057808411e-01 -2.044170377354928014e-01 -8.208044502095324102e-01 -4.464697057356650234e-01 -2.942338421859849174e-01 5.139608337442962416e-01 -6.190923277071437303e-01 -1.767208361945568074e-01 7.006869761223156745e-01 8.291803581949507007e-02 -8.188233986727561087e-01 -9.435895314529130218e-01 4.174333839287133752e-01 8.896128073424196536e-01 5.565899404524938809e-01 5.263259792053317510e-01 2.901665512009051207e-01 6.427992948324687816e-01 -8.650837476480125465e-01 -4.490605537039721873e-01 4.302661616021196123e-01 7.430460070636860648e-01 3.679899327204721460e-01 -6.141069860359994470e-01 8.633947424292459649e-01 7.809248533095938249e-01 -7.800951875382750034e-01 -6.262616793622151068e-01 -4.561184433440996777e-01 5.088379796290115609e-01
7.399618467338298089e-01 1.406848447264758273e-01 -6.512618286481592911e-01 -8.429037108627004948e-02 -7.124028135786912852e-01 7.983112484294780931e-01 5.337321814713495982e-01 -6.215979357207853523e-02 -2.035437249278490013e-01 -7.918847266889296188e-01 -4.194520310303589961e-01 -7.336942484909055873e-01 5.686144301873247153e-01 -2.003489651822556658e-02 -5.328334785113474359e-01 -5.595620979778992421e-01 -6.170259536309888881e-01 -2.981757837441888492e-01 -1.496547759085330720e-01 -3.738412955020593009e-01 4.012497692893862156e-01 -8.752553312291341259e-01 -3.257536626021392268e-01 5.561819368892600979e-01 8.667682512679466544e-01 5.297130730508866625e-01 -3.707147568401079063e-01 -5.605526272169285562e-01 -6.088987950618420797e-01 8.111042764691093199e-01
-5.281100401758576091e-01 4.820131876868746779e-01 -6.354724964299602874e-01 -7.339823447200554130e-01 4.835564649729615083e-01 4.225480810068208415e-01 -8.178399245289863506e-01 -4.691061081910256059e-01 7.103392932531863435e-01 -6.408225770714355285e-01 -9.088701379604542385e-01 2.518445212143534118e-01 8.626265713011876946e-01 -8.380881167982137114e-01 5.171781723262822324e-03 3.596988006048306707e-01 -8.137480607106004626e-01 -7.949938429304775900e-01 8.727748011033229503e-01 -8.957788765063031677e-01 -4.806784954893727480e-01 4.025146358121401979e-01 -4.068391629986944369e-01 -8.671225646931426390e-01 1.518768700632471269e-01 -4.639915713369668904e-01 -5.134981721799254384e-01 9.168795716483585378e-01 -5.663218993939506118e-01 5.730523183652348473e-01
7.737451633560884501e-01 6.804499991390811076e-01 -7.844225709318931594e-01 -2.516735629847223210e-01 -9.120948602090866997e-01 8.760357783678470733e-01 7.816290402257457526e-01 1.251666160949319873e-01 -9.584275777749337033e-01 -6.335381664282792036e-01 5.126542749756511641e-02 -3.548056661878054019e-01 -3.986084984852217294e-01 -7.750803903743619383e-01 -7.165878452966449874e-01 -1.112653553795852346e-01 -2.387342125244246993e-01 2.670299009322266715e-01 1.100191960558316584e+00 -6.844341878753312791e-01 4.974201120051193747e-01 6.893088921693917293e-01 2.132014190519729568e-01 7.421712763829578507e-02 7.927073322784914389e-01 5.595689154824872169e-01 -6.495713305711022789e-01 9.485838240407011845e-01 -8.415488754866772281e-01 3.261016861441649040e-01
1.403421897595318046e-01 5.584685112395499917e-01 -4.142544985855510786e-01 -5.166670325194171465e-01 2.281989016241686707e-01 -9.262421602607315840e-01 -2.498957096961784141e-01 8.226743673875359653e-01 5.635055719291871545e-01 -6.004226993921779609e-01 4.531808251023687895e-01 8.584948099435663060e-01 8.634189212819103343e-01 -7.823981830324164832e-01 -2.102386784447641266e-01 5.401772742465967836e-01 -6.277454972379317710e-02 4.571343433640160381e-01 4.546663310186424556e-01 -4.544819850634180258e-01 -9.454449539870214414e-01 6.168462775749826710e-01 -3.225915563042664469e-01 -1.135692145487346774e-02 1.630731351512258731e-01 1.941720455943178325e-01 -1.656006173402050363e-01 6.945004325386030519e-01 -5.906871790615576129e-02 5.207760349359478180e-01
9.958700739451790129e-01 4.729793698941515273e-02 -3.927093658649526975e-01 4.130135807220722821e-01 8.281796738472400887e-02 -9.702097541470670883e-02 4.260679410922916799e-01 6.432006256691668034e-01 -1.808729688798590696e-01 -6.090901498683587434e-01 -7.926800776486145339e-02 -3.002388892498261685e-01 -8.964927056358753532e-01 2.107420355563851544e-01 -6.037536571402086771e-01 4.239678816264750294e-01 -4.389497804917495416e-01 4.223305454548714755e-02 -1.427593962105087322e-01 -8.131498645198794728e-01 1.033449361169857528e-01 9.438303202872811992e-01 -7.395292023520322333e-01 -5.030195385670882535e-01 -9.360150763655489259e-02 2.080951007928922847e-01 8.427763300795468870e-01 -4.118518282901226235e-01 -6.123952207042947515e-01 -8.487663931581431245e-03
-4.191844880675528739e-01 -9.927064589522061056e-01 1.916721538358155397e-01 8.993666823057998583e-01 -1.330006891104232036e-01 -2.644433218121713391e-01 2.189775610577331458e-02 6.593711318841168900e-01 4.333068621361975126e-01 4.162260879978721406e-01 -3.884842677475504047e-01 6.258500417559136331e-01 -5.377323453961571076e-01 -7.346523788473982020e-01 6.071301606545564944e-01 7.108863690901365828e-01 -1.023005302661438742e+00 1.315776479106982588e-01 -6.594618292180856045e-01 -5.684259473229352072e-02 -5.267061933884764624e-01 6.945500823284348479e-01 5.505220708629365856e-01 -5.833186784041165529e-01 -9.610469487403270339e-01 7.086049896323787234e-01 4.243814461227409240e-01 -1.577490268816713614e-01 1.214224464874368969e+00 6.214050172617804346e-01
-2.326424697304629585e-01 -8.481749884036758891e-01 -1.906774522010061257e-01 -3.864189841575239037e-01 -8.684884893128947958e-01 6.148320839638415913e-01 -4.119607319271341161e-01 3.370586618503168541e-01 2.771975487581262443e-01 7.294480457428990094e-01 -1.104325340968837499e-01 -6.116484008551492657e-02 -7.628527907035207445e-01 -8.137063280036208601e-01 -1.421914696852525917e-01 1.910744339411894754e-01 -7.379140163498366933e-02 -1.017468665523630494e-01 -5.433431901817927789e-01 -3.379488819353912432e-01 6.988365675421788492e-02 8.470353410691942031e-01 2.112354708234763512e-01 -3.734682770353682790e-01 5.884854499861107147e-02 -5.670287977096202248e-01 1.210709667248419441e+00 3.297013844416640249e-01 4.887429717929442363e-01 1.118744785162383015e-01
-2.538729931185291222e-01 7.642097155472467040e-01 6.761057090494074773e-01 3.340587151151335754e-01 2.290147897314079584e-01 -6.914233053777041338e-01 -5.360832116350499055e-01 8.659149936102186751e-02 -6.865243804415525064e-01 -3.462927795661860930e-01 -1.302320465232899571e-01 -2.656817851952625875e-01 -4.913949539058131144e-01 -4.756333528391530341e-01 -1.631325452409413124e-01 -1.164510329839980735e-01 -3.241864892230311157e-01 1.144824487115448042e+00 1.187445950768166725e+00 -1.046390686757562860e-01 9.050639278886747352e-01 -3.296327236877686917e-01 1.571649890877495348e-01 -1.316755922693417791e-01 7.722319422237839959e-01 6.131722226598059766e-01 2.612081432511632051e-01 -4.088910889930418291e-01 -5.385461104097323259e-01 3.835387756724655678e-02
6.718111935306283478e-01 -9.246502211056912834e-01 -9.929930314904907851e-01 7.730329135100977300e-01 9.677998987915144014e-01 4.852327561570436015e-02 -3.785443746139053526e-04 1.527513850622897428e-02 6.068302383374252207e-01 9.753035201827102429e-02 9.221570751083927805e-03 -6.191661718050575081e-01 6.984356923017606134e-01 5.831263111794182663e-01 5.810180021080063595e-01 3.296418435566000338e-01 -9.310845308420697686e-01 4.407801966921195969e-01 -6.483371197982309431e-01 4.479379809857830241e-01 -1.014321839394604297e+00 7.014240353242430226e-01 3.647169011208383632e-02 -6.597565494117845208e-01 2.975134291700737843e-01 -4.304134902464644141e-01 1.229079810626963365e+00 -8.516144473695799189e-01 8.776136954303697113e-01 8.038285750674896146e-01
-3.654137498377154625e-01 6.977727988730896280e-01 3.168071306502623918e-01 -3.169516867897907431e-01 -2.303742169541773410e-01 -5.225044076626330636e-01 6.409260537554063442e-01 7.396784974589877548e-02 5.163781942473349984e-01 -3.254779379881572732e-01 5.234977470334413185e-01 1.001423486786452433e+00 -6.872923354718679656e-01 1.851267949947024427e-01 7.211545707893132207e-01 -3.206109291728231891e-01 -1.212918834996166151e+00 -2.467273499540572068e-01 7.655866630429437603e-01 -8.758661135043881441e-01 -9.957034073380557349e-01 5.244276827296563415e-01 1.321267817739717187e-01 -1.518167556826315878e-01 -3.791024425099894790e-01 1.437372843345058882e-01 8.114256415707176151e-01 -7.517819358906139282e-01 5.370495074916002975e-01 -4.986603276420079611e-01
-7.292994843721048448e-02 3.966755320038388155e-01 -8.545047675669571463e-01 5.826492886290931539e-01 4.350747886766733186e-01 1.488360020453807497e-01 -6.347627978621939171e-01 9.044713991664178332e-01 -8.350409020876605748e-01 4.927998321339172594e-01 -1.216007070496443188e+00 -3.700803971934598091e-01 1.168992786896101005e-01 7.172410195246821107e-01 4.277059754616143739e-01 6.774517184874733200e-01 7.450606642691314230e-01 5.394454064735908910e-02 5.760441581251842802e-01 -1.395480887952637618e-02 -9.294832051345110202e-02 -4.011413296812771923e-01 -6.996399426885741013e-01 7.327785302838909498e-01 6.343615901502315246e-01 -5.280735470284941835e-01 1.305072116634036772e-01 -5.822428892626307917e-01 -9.430322473634168423e-01 -4.659629509747090781e-01
-6.271521792529438644e-01 -1.005729961026726516e+00 -5.359970008087725502e-01 5.312017658769865314e-01 6.747858763897214285e-01 2.155087654998584512e-01 -4.781366802957593420e-01 6.250920459836635523e-02 5.896373503798029159e-01 1.123676540854568195e-01 -7.006692941088323856e-01 -3.321470073774530629e-01 9.213746178535126008e-01 1.225971083489816454e-02 -3.710863723698032413e-01 -6.775936325404920968e-01 3.273080422305179593e-01 4.426695890733653993e-01 -1.498483453159689949e-01 5.973575694270550906e-01 -5.161107669316000734e-01 -1.187479975137467614e-01 -7.597558159298142266e-01 5.591997611545329594e-01 -3.859754148207611424e-01 1.615010356989808604e-01 9.047421753913219566e-01 -9.707530634706713624e-01 6.626804815341745813e-01 -6.367072924531481937e-02
-9.411943649840303072e-01 4.481304022011975419e-01 6.858200449384762587e-01 -1.686060198820069911e-01 3.833322562219800833e-01 -8.801037474278793349e-01 8.964952328223010358e-01 1.047952516521295507e-01 -1.213642799385682425e+00 5.907897735438004672e-01 8.626661687945672563e-01 5.173519904926681123e-01 -9.920118822641272871e-01 -3.453185160272107534e-01 4.322077367722254038e-01 -3.813998941732787418e-01 5.849902124038941498e-01 7.262328702673372938e-01 9.147523555427723441e-01 4.401607381348836556e-01 2.717477357787875802e-01 -3.082153191307243634e-01 -8.453478763481134806e-01 5.905768536937218149e-01 -2.990227351416692159e-01 -2.095203244316261315e-01 3.646137283596156409e-01 -4.464115757737203288e-02 -3.758872321802251282e-01 -5.191740804121075525e-01
-9.082887237752796938e-01 -9.783567803042719779e-02 -6.607078731879528766e-01 2.379044981382266166e-01 3.507176926731248590e-01 -7.629452750762808488e-01 9.633306057623112206e-01 8.040864535334434349e-01 -6.755947199630598643e-01 -1.030438785009920366e+00 -6.671725241436399223e-02 -3.533221789517844158e-01 9.432296012246527139e-02 6.513679103195476605e-01 7.487924209773926254e-01 -9.874620271619715117e-01 3.895616183915985853e-01 -3.840367290098594122e-01 9.593151814835547686e-01 7.008745064148136361e-01 -9.261459799665601456e-02 2.098499239459943044e-01 -6.879718424653614717e-01 -6.173275301407598059e-01 -5.436904532222437414e-01 -2.724671434290710792e-01 -7.111085191209068901e-01 -1.041798026506317032e-01 4.719806024639843639e-02 -9.718152931167359787e-01
-3.908124346101819468e-01 -1.031475166570279267e+00 -1.165066353002803916e-02 1.160349100699821917e-01 2.306579526017698833e-01 6.568773741912812270e-01 -5.244508417526820843e-01 3.215768680807717939e-01 -4.592966375342546481e-01 -8.864994094951521575e-01 -3.863035196141321181e-01 -9.040343732370518248e-01 9.138750114744865760e-01 5.827230374871635865e-01 -6.874134263948519230e-01 5.758926020827381809e-01 -3.350974068501791359e-01 8.504878375323395856e-01 3.228159204703746985e-03 7.498568425560198092e-01 -6.352861120620576507e-01 -2.569251998597820164e-01 -2.818666534589405748e-01 -8.295936029828765435e-01 -2.390429080332609757e-01 2.711024062428497583e-01 -5.016024320542338683e-02 7.278838659560153967e-01 -6.117977539479917404e-01 -3.970520520254363639e-01
-3.939017904949660975e-01 -4.157253718591583103e-02 -6.604184396766638043e-01 -7.181380642753183441e-01 8.794696616513598686e-01 -2.400615638787114703e-01 1.987929238800418552e-01 -8.551330956396065996e-01 -7.635490331411970422e-01 -8.659160017967644229e-01 6.183010153450656521e-01 -7.926013106256201146e-01 3.013907567096628035e-02 -6.632596391667660018e-01 -3.397652798431688437e-01 7.666008857660358000e-01 2.310537346587027974e-01 9.334006989840514246e-01 2.084646608122668332e-01 -9.802864861602585966e-01 -1.837871425058176245e-01 -9.401625089653824485e-01 -3.792832180561574451e-01 -5.544384147073010832e-02 1.676719650044854459e-01 -5.982599369248519094e-01 2.049037375756633805e-01 -2.096309529013238304e-01 -6.287692377336755178e-02 -6.266961068677541213e-01
-7.043224088419148821e-01 3.982642050819665269e-01 -3.391309832916267197e-01 2.622631846801382061e-01 1.297025691444788631e-01 7.943847210412108284e-01 7.638966868544871947e-01 -9.107129834026762849e-02 -6.025910461998414958e-01 2.059059884140804486e-01 2.714578757330758929e-01 4.186964903066687227e-01 8.148792972060333595e-01 5.640845729743885206e-01 3.047832305492736427e-01 2.007538195284598037e-01 -6.100432960261348292e-01 2.908145246657176664e-01 6.319935369693900906e-01 8.447011831774102752e-01 8.306723314880849474e-01 1.235843003834351805e-01 -4.839603728602879240e-01 -3.396391924875119539e-01 9.936685798436108996e-01 -1.593371519947923629e-02 7.208414243873485505e-01 1.977030845002211434e-01 -9.002314657143016194e-03 -3.260405023318020401e-01
7.585659705895504701e-02 -9.995176630733226819e-01 7.650561876168029407e-01 1.268044581485843203e-01 -9.523318181600348709e-01 6.250381607077379886e-01 -7.286826428528540012e-01 -9.391582317239084432e-01 -7.307721431891604780e-02 9.210645599637418135e-01 -8.126379834034627159e-01 -8.641010229260271958e-01 7.598719863785021733e-01 6.252676546386813916e-01 6.401314335720279525e-01 -6.404468171821030287e-02 -1.509351331752599723e-01 -2.192926201708970124e-01 1.657321166114910371e-01 4.579415002082400377e-01 5.549885166199185482e-01 3.092237567625401584e-01 1.278287729582893717e-01 -1.744833685418742952e-01 -3.611865930942960157e-01 -4.362470086880433362e-01 -4.002238273788485401e-01 3.643559886213534882e-01 5.351247860685828250e-01 1.881584238844201395e-01
-5.599788368960598728e-01 -6.110517131883812514e-01 5.339414586182572586e-01 9.572956934668240825e-01 -9.681684075612755347e-01 -5.050606998030647832e-01 5.846246363726503859e-01 4.378012931330851898e-01 -5.080492970211614168e-01 1.093296174965871503e-01 1.711708310390566423e-01 4.501633060328411595e-01 -7.265208366670126983e-02 -1.943620780177132135e-01 -3.833564350732893700e-01 -5.257798766449055528e-01 -8.260315280043541986e-01 2.867775295751715525e-01 3.389809220634302234e-01 3.746869479494419064e-01 -9.971930787658390694e-01 -1.241620448871386950e-01 -7.562321006157737280e-01 5.321927898720957978e-02 9.594794440170968386e-01 -1.518398409614092007e-03 -2.482804559206984729e-01 6.275711809562891652e-01 9.307372637654393044e-01 -4.337613618030503604e-01
6.060000794930018309e-01 9.922828747265395322e-01 -7.763515204967843530e-01 6.209470917444415150e-02 6.270531589700005792e-01 -2.474116326862036974e-01 -1.084509474505495064e-01 5.018051193291332979e-01 -8.033072421031595134e-01 -2.789473900070782442e-01 1.274125105729115859e-01 -5.228288081148324551e-01 6.799075434440657872e-01 5.317019845798787170e-01 9.310851591846773800e-01 4.597615002745736312e-02 -7.869506840188138508e-01 8.732340461229739503e-01 6.684719789926982791e-01 8.883632200647517685e-02 6.726045547708081607e-01 7.633818387078847856e-01 5.521622747337953108e-01 1.425079540848348536e-01 2.305974429321646646e-01 6.887813652867174063e-01 2.444332726278675150e-01 -5.870400816247367537e-01 3.829768471079395553e-01 6.402750015476321721e-02
-4.735058821996209755e-01 -9.984269169407271605e-01 -5.290044774001727568e-01 3.471333959520639389e-01 7.566403993618895374e-01 6.614051384811354684e-01 -7.837852288229791853e-01 -8.577500409543235005e-01 5.231846237580102255e-01 -4.303332557633865463e-01 -4.563938950067574218e-01 -9.959993987831365914e-01 -8.029219787188939250e-01 -7.288059052152937589e-01 -6.812795875416068903e-01 -1.093727947692695324e-01 6.282716294476404784e-01 6.245962307368950750e-01 8.199792433648962486e-01 -1.128159227593326097e-01 4.174210158900266698e-01 -2.333176375910261946e-02 -9.003148837309580266e-01 -8.391371320609057882e-01 -5.081153295677218740e-01 9.632434572460333300e-01 3.838344585535695686e-01 -4.639848362853591368e-01 4.125264891026323433e-01 3.226922687631392783e-01
-9.134196551533572128e-01 -2.770248309550500387e-01 5.474559658925265415e-01 -8.429540067988521290e-01 7.687682335519964161e-01 8.617366109408627350e-01 7.061775780927049828e-01 -7.652446182638158456e-01 1.303469301065398600e-01 4.151199003133341781e-01 7.759601797226214348e-01 -8.084479414230616445e-01 6.315411691001669992e-01 -4.439673191266154673e-01 1.845740695354063376e-01 4.395914187597462219e-01 5.540383045477699220e-01 -4.106699945738323532e-01 2.147568313673810236e-01 -4.250542513191738481e-01 9.966360892186096887e-01 6.290111995274960677e-01 -1.720445740684490854e-01 7.582984876582663514e-01 4.650012371964773461e-01 8.574938437120654955e-01 -6.567644949593826054e-01 -4.103299732731871541e-01 -8.125273989379171447e-01 -3.640359118660481674e-01
-2.376201386001081661e-01 2.657748002436080004e-01 -5.696103866297670681e-02 4.362294488691843553e-01 -4.615529924550891838e-01 -6.539606041523128299e-01 -2.420348620715941923e-01 -1.238366261486135017e-01 -1.557157949051956591e-01 8.295637063448242365e-01 -4.608661797830772011e-01 -2.997212079820077979e-01 -5.695835506764200806e-01 -2.560711668616779124e-01 -2.202977891768973240e-01 1.513116142360654004e-01 -4.423484763696407529e-01 -4.813943127236204877e-01 4.380800781649912823e-01 8.203536409985023869e-01 -7.561724680841847013e-01 -6.354236112482108956e-01 -7.337844384952049159e-01 3.672984616008956316e-01 -5.721918966246788418e-01 2.091582628849825709e-01 -5.968123070745490200e-01 6.354985888779930425e-01 -3.655146852955682424e-01 3.396148621177175198e-01
-6.989845574297077757e-01 -3.889364200809129479e-01 -4.020287554701285626e-01 2.697359174758636180e-01 3.626107424075376562e-01 6.833300351090039193e-01 -6.358606507993646018e-01 5.160160962136084439e-01 4.217373608662507434e-01 1.226619397238889880e-01 3.002147563831747967e-01 -8.209696780635700186e-01 -7.061990120408474514e-01 -1.695220159346613187e-01 4.221576296819445906e-01 -6.641113793631600037e-01 -2.224804080302579534e-01 -4.638045805285292804e-03 8.688176310733832786e-01 -8.886677358306684926e-01 6.561519989859243562e-01 9.683978540114615008e-01 -4.649934700687438083e-01 7.802567149411807623e-01 -4.199063474645861049e-01 5.973722230986034942e-01 -7.836885773475303629e-02 1.927717521878803408e-01 -5.270902218091310099e-01 3.771971552899356928e-01
-6.911701051394515405e-01 1.141399020036562018e-01 -3.853929282259375456e-03 6.750795856321578636e-01 -3.369980529832525967e-02 5.496329132219464064e-01 -2.099385248610341204e-01 -3.853455892454716869e-01 5.729531394842588554e-01 -1.467436401877326990e-01 2.068811477535352668e-03 1.543362724032870115e-01 6.394587060574460358e-01 1.728170220136688584e-01 -2.027875844353824730e-01 -6.788954993531306492e-01 4.088728201647431892e-01 7.653157478583603179e-01 -7.881257316588881068e-01 -6.336165095233467492e-02 8.662625453073091730e-01 1.269055404150517263e-01 8.979500915461390009e-02 -8.715486292421668058e-01 6.611562267639146950e-02 3.026090209248343821e-01 -6.964736765968158050e-01 9.088780563312027772e-01 -6.107006474162662846e-01 3.666522015963439296e-01
-4.368336297719414563e-01 -8.110710482902449003e-01 -4.765083918310036859e-01 -3.045963433975015788e-01 -6.601559020095459918e-02 -5.089693653033795506e-01 4.255832040387256821e-01 5.362919467823531461e-01 5.662369634696750031e-01 4.795331116015206230e-01 -4.636603804555019526e-01 -5.743518716806861324e-01 -7.807684417662235088e-01 -1.913108549972896699e-01 -9.261709901883856677e-01 3.081736572917624928e-01 8.771861245079712877e-01 5.451841782821469362e-01 -7.820132612316237353e-01 -9.548379474291351920e-01 -3.409607712215947939e-01 9.828778550400155689e-01 -3.824912747253824685e-01 4.993475277682670188e-01 3.949585681688598249e-01 1.227557401688934430e-01 -1.770872303486797639e-01 -5.705518656805000921e-01 9.504306294194379001e-01 -7.705599383339625241e-01
-5.056485530806278383e-01 -4.061316957803401961e-01 8.186557234605218447e-01 5.465210660733482717e-01 -4.648618915293689646e-01 -6.083827049918415497e-01 7.310901895181911581e-01 4.686137642591614028e-01 -9.153672585292640385e-01 8.501253122739776957e-01 1.372955613739084701e-01 -7.223993034784961798e-02 3.499885824198942785e-01 -9.792059995067203815e-01 -5.219249090324780127e-01 -8.264580927886430173e-01 3.455364915424209427e-01 -1.324847717676018721e-01 -2.698750264259862364e-02 -3.981136106900575178e-01 5.956570936128769977e-01 -9.077223976611995537e-01 -4.360276878401115885e-01 2.923214157288666071e-01 5.161306796210199943e-01 1.549760618903767428e-01 5.568227120486305415e-01 -9.125208110835821840e-01 -4.749291976781538360e-01 -6.797597032239303116e-01
2.768904585170158666e-02 9.438025939488691174e-01 -9.664581676082755202e-01 1.613759875418477275e-03 -9.855391507807346185e-01 2.682302060924123266e-01 -6.701221347868603351e-01 2.022266753813642681e-01 -6.839346004030585346e-01 7.899496682136353254e-01 -6.347439492361863778e-01 -2.666691595885802291e-01 -5.330275750611466190e-01 5.285850974318402340e-01 -2.761249530306933431e-01 7.348203205216427003e-01 -8.056892265550843479e-01 6.564649932501567808e-02 6.181799164952124226e-01 1.033700382696607356e+00 4.032705752033907687e-01 -6.145878881644738501e-01 5.433732009309131250e-01 -6.618647249583626824e-01 4.443489807954891235e-01 5.555323931160629503e-01 3.128845420527976429e-01 4.648167538360315626e-02 8.763143256689500671e-01 -6.779567714082097574e-01
-9.633274767112102177e-01 -5.596317771572130173e-01 -7.625999572819333605e-02 2.842255337835414286e-01 -2.555278552053395491e-01 -3.102658713792079137e-01 -5.938335819106582703e-01 1.679340727108274700e-01 -4.526470254210380184e-01 2.390077364032120455e-01 5.323514225560065372e-01 2.838197564940006523e-01 -1.812340998460028330e-01 -7.209446359579182451e-01 -5.399232657303227878e-01 -3.623969463584172934e-02 8.256686116242375473e-01 -2.250789114079680131e-01 -5.436317892774478189e-01 -5.019941676337066339e-01 -5.722197396292528770e-01 -7.457949724982646522e-01 -2.061645160065004589e-01 -1.448049645754066195e-01 6.874107219800944524e-01 3.867165250545396837e-01 -3.306991908788287082e-01 7.591412730393349850e-01 -7.103689851690871970e-01 9.804531928163359167e-01
1.092456663476547435e-01 -9.302795324721933046e-01 6.541457086463025039e-01 1.038834234263249279e+00 7.135416457129539758e-01 -1.235262180655579967e-01 -4.519966852940486834e-01 4.524930903148250416e-01 5.406864202671051167e-01 -5.415873588851394249e-01 -3.610352687873683575e-01 8.027477403583197502e-01 5.978098101523904306e-02 -6.419004187066882361e-01 2.074443092798141652e-01 -5.214736842676268580e-01 -1.222529271149310981e+00 -1.322937243598976131e-01 1.109036779876751311e+00 3.572741249382327955e-01 -5.786024650585109841e-01 5.374106805791455388e-01 5.176629790206699333e-01 6.181646251142758342e-01 -8.349147031031428634e-01 -7.063374662074670685e-01 1.178979185843941568e+00 5.772885683483564012e-01 -4.449600517690086021e-01 1.812576605413228903e-01
1.068411627208898373e-01 5.307679999718787345e-01 -7.044612672548208332e-01 -3.652404236833513007e-01 -1.463648011738368782e-01 8.451595362340991180e-01 -3.831965571778649937e-01 -1.305980350946151392e+00 -1.062718166181335189e+00 1.047645725125291305e-01 -1.066437076037553888e+00 4.835742360177192056e-01 3.694671899642588131e-01 -3.721027118989584936e-01 -1.284722220927454143e-03 -1.244482829775449412e-01 8.740985362077141607e-02 -8.640449387279459936e-02 5.546911272646868341e-01 5.281725196580983744e-02 3.845494504323546114e-01 7.290816039185711583e-02 2.211721033753655252e-01 -5.425426152292202042e-01 -1.317246985987381713e-02 -9.235038676741919028e-01 -2.569824166239109697e-01 7.814102439382525356e-02 4.551329098135047380e-01 2.421861656372189531e-01
-7.036354017294031982e-01 2.903656868168484895e-01 8.262497402060511309e-01 8.094899705396229050e-01 -7.432877946145416415e-01 6.598521234061867080e-01 -8.531664987421584412e-01 -6.300304653551634937e-01 6.642506806390647833e-01 2.306613804501447124e-02 -9.321515115817886610e-01 8.866836300337593846e-01 8.901777943070786625e-01 -9.031783499663667003e-01 -1.037989320814469041e+00 -8.565771876466761192e-01 5.752224798178030563e-01 6.131044283416791085e-01 7.304424170891807844e-01 -2.497718708607427063e-01 -8.299700367094712261e-01 1.231777782724521597e-01 -3.812215211699337969e-01 4.292667878572619111e-01 -3.908608220497584995e-02 -5.744215798328685674e-01 -9.812138533517775207e-02 -6.691301589098639369e-01 3.777198520537071724e-01 2.825262506314816374e-02
2.966090653424623413e-01 5.799816264769419583e-01 -1.331048813641958484e-01 -7.518613089534682548e-01 9.741291442288910751e-01 7.486688383683050008e-01 -2.224278179400350219e-01 -9.764061486232710196e-01 6.742746259926297725e-01 3.623578057322479617e-01 -2.184975854017862443e-02 1.189763388461271498e+00 -8.995180618456379840e-01 -1.042857687768755204e+00 -1.028046665507239110e+00 5.518556767738854729e-01 -1.009670017543442128e-01 -2.739580493846494602e-01 5.300770719155230015e-01 4.688052870695954555e-01 3.082275523836586761e-01 1.258820695816471602e+00 1.007642788940334766e+00 7.612046806458315773e-01 -7.118457673564478894e-01 -8.108110232160914421e-01 -4.137287469067859602e-01 -5.801090746057169234e-01 8.077008443509039459e-01 5.218886287159113513e-01
1.766910700021203928e-01 -9.019591700661920841e-01 -3.730680973198471362e-01 4.712141195967036733e-01 4.807969467719798717e-01 -1.854441839482623769e-02 3.436975621838178063e-01 -1.192288461839927871e+00 -1.045433498009375128e+00 5.293798760374229806e-01 -7.551998558431654018e-01 1.662601574749564270e-01 8.158331769997320126e-01 -2.359616878114557670e-01 -6.494894675849099963e-02 -1.021210646093404062e+00 5.148449514714995012e-02 3.067884120814642346e-01 4.413465538652854847e-01 -3.311851783309274211e-01 -2.362158595127409055e-01 1.419662243593405648e+00 -4.711285541022091072e-01 -5.616928357670231131e-01 -7.396104838323256381e-01 2.268617073744441937e-01 8.013853091086960978e-01 3.801584346396902903e-01 4.308808573134570441e-01 8.861141760177299043e-01
6.612882574262122226e-01 4.951655440406989572e-01 6.550125926016528988e-01 -3.264062110751243528e-01 -7.654151293514613319e-02 -7.052220743430683836e-01 1.798964969978148198e-01 -5.652191276735049064e-01 9.366520769555864920e-03 -1.537756215603621190e-01 -3.830244278072452158e-01 -4.097509376190126007e-01 2.834869401189566984e-01 -9.256538323450158590e-01 3.021910827949178535e-01 -7.452790523051369131e-01 -1.363452151677360946e-01 9.710640620027898295e-01 8.953616479165190656e-01 8.289361947745960135e-01 -3.247541919661855458e-01 1.319112802426223086e+00 8.648185973230050339e-01 8.322060401086728287e-02 6.274143059619659013e-01 3.307661953412318057e-01 2.577173233852798062e-01 -6.325694636817480454e-01 2.941300379128647391e-01 -6.392526621268048714e-01
1.491495624508901163e-01 -1.647147994386039815e-01 9.030467995463528075e-01 1.740905788962125167e-01 9.729607905925273803e-01 -4.762718334434123402e-01 1.524109372221693626e-01 -2.120741835586803792e-01 -5.694749481247134426e-01 6.119883580199824147e-01 -1.092060364744608547e+00 5.415166058029052820e-01 -7.219369770762643634e-01 -6.560153323805135717e-01 2.148899914934903621e-01 -4.711590302183343848e-02 1.296202421350409750e-01 4.948877913767177894e-01 -1.766585296181327203e-01 9.004668317568136349e-01 8.814864805895080702e-01 1.257498307842050078e+00 -2.466839873249465354e-01 -6.396815751886368862e-01 2.147043181142322954e-01 5.584188464156600862e-01 5.612891549880048014e-01 3.528827489141632689e-01 1.096491457822263538e+00 -4.262457424021734442e-01
4.363022723847074236e-01 1.003197706205342654e-01 4.440855808304485230e-01 4.235357506327288024e-01 2.194000262398120848e-01 7.128576717247574468e-01 7.922207145305786014e-02 -3.287568039774675377e-01 1.960039615874173136e-01 3.014283438476529353e-01 -3.612628869162310963e-01 2.581804851429875813e-01 3.116763504979445654e-01 -3.518024450984356677e-01 -2.854201780325354987e-01 -2.494656208762330296e-01 -5.632076515462058897e-01 4.221193206147094701e-01 5.012604226289064657e-01 -1.241115378721794997e-02 -6.682770389914024500e-01 9.624859759639984302e-01 3.251463755996414351e-01 4.113505524337642827e-01 -9.192990469822028832e-01 -6.964295499848657256e-01 -9.091163343169363920e-01 3.907254159505151869e-01 -5.121047605179751550e-01 4.342921463278242612e-03
1.888763332221691793e-01 -4.402939107773489597e-02 -8.503691166360901610e-01 7.216559755026082101e-02 -5.438714872627254948e-01 -7.339402863983911507e-01 3.460425700244386671e-01 7.254572630147470003e-01 -1.017597884965870669e+00 7.961016263339884547e-02 1.505432168199665743e-01 1.213113538882684278e-01 2.966178709045336759e-01 4.804063274564981390e-01 9.445148439985283639e-01 -1.927731052537698109e-01 -5.145363385519761967e-02 -7.464856200724945268e-02 6.642563868982710451e-01 -3.666392256381270087e-01 4.786505771083892635e-01 8.555826601687872568e-01 4.773935240196224283e-01 1.738460576875016372e-01 5.774282288588890033e-01 -2.976175561359991617e-01 3.296116588393638303e-02 3.766783684667385224e-01 5.165460751083466029e-01 -8.244714465118205271e-02
